<?xml version="1.0"?>
<opencv_storage>
<opencv_ml_svm>
  <format>3</format>
  <svmType>C_SVC</svmType>
  <kernel>
    <type>POLY</type>
    <degree>1.</degree>
    <gamma>1.</gamma>
    <coef0>0.</coef0></kernel>
  <C>1.0000000000000001e-001</C>
  <term_criteria><iterations>10000000</iterations></term_criteria>
  <var_count>128</var_count>
  <class_count>2</class_count>
  <class_labels type_id="opencv-matrix">
    <rows>2</rows>
    <cols>1</cols>
    <dt>i</dt>
    <data>
      0 1065353216</data></class_labels>
  <sv_total>255</sv_total>
  <support_vectors>
    <_>
      8.86273310e-002 1.18169775e-002 0. 0. 0. 0. 0. 3.93899251e-003
      2.58004010e-001 1.98919132e-001 2.95424443e-002 5.31763993e-002
      7.87798502e-003 0. 0. 7.68103600e-002 9.45358202e-002
      1.26047760e-001 8.07493478e-002 2.58004010e-001 3.93899269e-002 0.
      0. 2.36339550e-002 1.18169775e-002 5.12069054e-002 2.56034527e-002
      2.75729485e-002 3.93899251e-003 0. 0. 0. 1.02413811e-001
      5.90848876e-003 0. 0. 0. 0. 0. 1.57559700e-002 2.58004010e-001
      8.86273310e-002 1.37864742e-002 1.96949635e-002 5.31763993e-002 0.
      0. 8.66578370e-002 8.46883431e-002 1.43773228e-001 6.89323694e-002
      1.22108772e-001 2.58004010e-001 7.87798502e-003 0. 7.87798502e-003
      5.90848876e-003 1.91041142e-001 7.87798539e-002 6.49933815e-002
      5.71153946e-002 2.16644593e-002 0. 0. 5.71153946e-002
      3.93899269e-002 0. 0. 0. 0. 0. 1.96949625e-003 2.16644600e-001
      2.58004010e-001 1.12261288e-001 1.57559700e-002 1.18169775e-002 0.
      0. 1.96949635e-002 9.45358202e-002 9.84748155e-002 8.86273310e-002
      5.31763993e-002 1.79224163e-001 1.37864739e-001 5.31763993e-002
      5.71153946e-002 3.74204293e-002 1.63468197e-001 7.87798502e-003
      1.96949625e-003 5.90848885e-002 1.47712231e-001 1.77254677e-002
      1.96949625e-003 1.96949625e-003 9.84748174e-003 0. 0. 0. 0. 0. 0.
      1.12261288e-001 1.12261288e-001 9.84748174e-003 0. 0. 0. 0.
      3.93899251e-003 2.58004010e-001 2.40278557e-001 5.71153946e-002
      2.75729485e-002 6.10543862e-002 6.89323694e-002 3.93899269e-002
      7.28713647e-002 2.36339550e-002 5.31763993e-002 2.16644593e-002
      3.15119401e-002 2.12705597e-001 1.39834240e-001 1.37864742e-002
      3.93899251e-003</_>
    <_>
      5.10322154e-002 0. 0. 0. 0. 0. 0. 1.37394425e-002 2.59086639e-001
      0. 0. 0. 1.96277746e-003 0. 1.96277746e-003 2.21793860e-001
      8.24366584e-002 0. 0. 5.49577698e-002 2.25719422e-001
      9.81388800e-003 9.81388800e-003 1.21692210e-001 0. 0. 0.
      6.28088787e-002 2.21793860e-001 3.92555492e-003 0. 0.
      1.17766649e-001 1.96277746e-003 0. 0. 0. 0. 0. 9.81388800e-003
      2.59086639e-001 4.12183292e-002 1.96277746e-003 3.92555492e-003
      2.94416621e-002 1.17766652e-002 3.92555492e-003 1.74687207e-001
      8.43994319e-002 1.37394425e-002 3.92555492e-003 6.67344332e-002
      2.59086639e-001 7.85111040e-002 1.37394425e-002 6.08461052e-002 0.
      0. 0. 3.92555520e-002 1.84501082e-001 1.07952766e-001
      1.76649969e-002 0. 8.83249864e-002 3.92555492e-003 0. 0. 0. 0. 0.
      5.49577698e-002 2.59086639e-001 1.76649973e-001 3.92555520e-002
      3.14044394e-002 1.76649969e-002 3.92555492e-003 3.92555492e-003
      9.02877674e-002 4.31811064e-002 6.08461052e-002 1.15803875e-001
      2.59086639e-001 1.72724426e-001 3.14044394e-002 5.88833261e-003
      3.92555492e-003 0. 0. 6.47716597e-002 1.82538316e-001
      7.45855495e-002 4.90694381e-002 9.81388800e-003 0. 9.22505409e-002
      0. 0. 0. 0. 0. 0. 1.76649973e-001 9.61761028e-002 9.81388800e-003
      9.81388800e-003 3.14044394e-002 9.61761028e-002 3.33672166e-002
      3.33672166e-002 2.57123858e-001 1.96277746e-003 1.96277746e-003
      2.94416621e-002 1.41319975e-001 2.53198296e-001 2.94416621e-002
      3.92555492e-003 3.92555492e-003 0. 0. 2.74788849e-002
      6.08461052e-002 1.76649969e-002 0. 0. 0.</_>
    <_>
      1.95859047e-003 1.56687237e-002 5.87577140e-003 3.91718093e-003 0.
      1.95859047e-003 0. 0. 5.87577149e-002 5.67991249e-002
      3.91718093e-003 5.87577140e-003 0. 0. 0. 7.83436187e-003
      2.76161253e-001 1.23391204e-001 0. 3.91718093e-003 2.54616775e-002
      1.17515428e-002 1.17515428e-002 1.05763890e-001 2.93788575e-002
      1.37101337e-002 0. 1.17515428e-002 2.13486359e-001 1.09681070e-001
      1.95859056e-002 2.35030856e-002 5.87577140e-003 9.79295280e-003
      5.87577140e-003 3.91718093e-003 0. 0. 0. 1.95859047e-003
      1.70397371e-001 5.87577140e-003 3.91718093e-003 3.91718093e-003 0.
      0. 0. 3.32960375e-002 2.76161253e-001 1.03805296e-001
      1.95859047e-003 3.91718093e-003 1.56687237e-002 3.72132212e-002
      3.72132212e-002 2.76161253e-001 4.11304012e-002 3.13374475e-002
      5.87577140e-003 2.35030856e-002 2.17403546e-001 2.76161253e-001
      8.22608024e-002 6.26748949e-002 3.91718093e-003 5.87577140e-003
      5.87577140e-003 1.95859047e-003 0. 1.95859047e-003 0. 0.
      1.99776232e-001 2.35030856e-002 0. 0. 0. 0. 0. 1.56687237e-002
      2.76161253e-001 2.19362140e-001 3.91718093e-003 3.91718093e-003
      5.87577140e-003 1.95859047e-003 0. 2.15444956e-002 1.54728651e-001
      7.05092549e-002 9.79295280e-003 5.87577149e-002 2.76161253e-001
      8.42193887e-002 3.91718093e-003 1.37101337e-002 1.95859047e-003 0.
      0. 1.95859047e-003 1.37101337e-002 1.76273137e-002 3.91718093e-003
      0. 1.11639656e-001 2.93788575e-002 0. 0. 0. 0. 0. 3.91718093e-003
      2.76161253e-001 8.81365761e-002 1.95859047e-003 3.91718093e-003 0.
      0. 0. 5.87577140e-003 1.58645824e-001 3.72132212e-002
      1.37101337e-002 1.88024685e-001 2.31113672e-001 1.17515428e-002 0.
      1.95859047e-003</_>
    <_>
      1.51430815e-001 1.17998039e-002 0. 0. 0. 0. 0. 3.53994109e-002
      2.41895974e-001 4.32659462e-002 2.35996079e-002 1.96663402e-002
      9.24317986e-002 5.89990197e-003 0. 8.65318924e-002 2.35996079e-002
      7.86653608e-002 2.55662408e-002 4.12993133e-002 2.41895974e-001
      3.93326804e-002 0. 1.96663383e-003 9.83317010e-003 2.35996068e-001
      2.94995084e-002 1.76997054e-002 4.52325791e-002 2.55662408e-002 0.
      0. 8.45652595e-002 9.63650644e-002 5.89990197e-003 0. 0. 0. 0.
      5.89990197e-003 1.31764472e-001 2.41895974e-001 2.41895974e-001
      2.16329731e-002 1.76997054e-002 0. 0. 2.16329731e-002
      6.88321888e-002 6.09656535e-002 1.06198236e-001 3.93326804e-002
      1.51430815e-001 1.61263987e-001 6.09656535e-002 7.27654546e-002
      1.96663402e-002 1.31764472e-001 0. 0. 4.52325791e-002
      2.08463192e-001 3.14661413e-002 3.93326767e-003 3.93326767e-003
      2.35996079e-002 1.96663383e-003 0. 0. 0. 0. 0. 1.55364081e-001
      1.16031401e-001 2.94995084e-002 0. 0. 0. 0. 9.83317010e-003
      2.41895974e-001 2.41895974e-001 7.47320876e-002 3.53994109e-002
      5.70323840e-002 9.83316973e-002 8.06319937e-002 1.80930316e-001
      1.37664378e-002 3.34327780e-002 3.93326804e-002 6.09656535e-002
      2.41895974e-001 2.41895974e-001 4.12993133e-002 1.76997054e-002 0.
      1.96663383e-003 0. 0. 0. 0. 0. 0. 3.14661413e-002 5.89990169e-002
      0. 0. 0. 0. 0. 0. 1.23897940e-001 2.41895974e-001 1.08164869e-001
      2.16329731e-002 7.86653534e-003 0. 0. 1.96663383e-003
      9.83316973e-002 5.30991182e-002 5.89990169e-002 4.71992157e-002
      1.12098135e-001 1.02264963e-001 2.16329731e-002 2.75328755e-002</_>
    <_>
      3.93805327e-003 0. 0. 0. 0. 0. 0. 3.93805327e-003 6.49778768e-002
      0. 0. 0. 0. 0. 1.96902663e-003 1.20110624e-001 8.86062011e-002
      7.87610654e-003 0. 0. 9.84513294e-003 2.75663733e-002
      1.77212402e-001 2.36283198e-001 2.36283205e-002 1.96902659e-002
      9.84513294e-003 5.71017750e-002 1.27986729e-001 6.69469088e-002
      8.46681446e-002 4.13495600e-002 7.87610654e-003 0. 0. 0. 0. 0.
      5.90708014e-003 1.96902659e-002 2.36283198e-001 3.54424790e-002 0.
      0. 0. 0. 3.93805327e-003 1.35862842e-001 2.36283198e-001
      1.94933638e-001 1.33893818e-001 1.31924793e-001 4.72566411e-002
      2.95353997e-002 7.08849579e-002 2.20530987e-001 5.90708014e-003
      3.93805327e-003 4.72566411e-002 2.36283198e-001 2.36283198e-001
      5.31637184e-002 2.95353997e-002 9.84513294e-003 1.96902663e-003 0.
      0. 0. 0. 0. 1.47677004e-001 1.33893818e-001 6.30088523e-002
      1.57522131e-002 5.90708014e-003 9.84513294e-003 5.90708014e-003
      5.90708014e-003 1.22079656e-001 2.36283198e-001 4.92256656e-002
      6.89159334e-002 8.26991200e-002 2.00840726e-001 1.47677004e-001
      3.15044262e-002 5.90707995e-002 8.26991200e-002 2.95353997e-002 0.
      2.75663733e-002 2.36283198e-001 5.31637184e-002 0. 0.
      4.52876128e-002 4.52876128e-002 0. 0. 7.87610654e-003
      2.16592941e-002 1.37831867e-002 1.63429216e-001 1.75243378e-001
      1.18141603e-002 5.90708014e-003 1.02389388e-001 1.75243378e-001
      3.93805318e-002 1.18141603e-002 6.69469088e-002 1.18141599e-001
      5.90708014e-003 1.96902663e-003 7.87610635e-002 2.36283198e-001
      8.86062011e-002 5.90708014e-003 5.90708014e-003 9.84513294e-003
      1.00420363e-001 1.96902663e-003 1.96902663e-003 3.93805318e-002
      1.96902659e-002 0. 0. 5.51327467e-002</_>
    <_>
      1.96801219e-003 0. 0. 0. 0. 0. 0. 1.57440975e-002 1.96801219e-003
      0. 0. 0. 0. 1.96801219e-003 7.47844577e-002 8.65925327e-002
      2.36161463e-002 0. 0. 0. 0. 1.57440975e-002 1.39728859e-001
      1.06272653e-001 1.20048739e-001 0. 0. 5.90403657e-003 0. 0.
      7.87204877e-003 2.61745602e-001 6.69124126e-002 0. 0. 0. 0. 0. 0.
      4.32962663e-002 2.61745602e-001 1.96801219e-002 0. 0. 0.
      2.16481332e-002 1.67281032e-001 2.61745602e-001 4.52642776e-002
      7.87204877e-003 0. 7.87204877e-003 1.18080731e-002 2.04673260e-001
      2.61745602e-001 2.00737238e-001 5.70723526e-002 0. 1.77121088e-002
      2.10577294e-001 9.84006096e-003 1.18080731e-002 5.90403639e-002
      2.61745602e-001 5.51043376e-002 3.93602438e-003 0. 0. 0. 0. 0.
      3.93602438e-003 2.61745602e-001 1.75153077e-001 1.96801219e-003 0.
      0. 3.93602438e-003 9.84006096e-003 4.72322926e-002 1.33824825e-001
      1.00368619e-001 1.96801219e-002 1.63345009e-001 1.59408987e-001
      8.26565102e-002 5.51043376e-002 2.75521688e-002 0. 0.
      5.90403657e-003 2.61745602e-001 1.41696870e-001 9.84006096e-003
      9.84006096e-003 5.90403657e-003 0. 0. 0. 0. 0. 0. 0. 0.
      5.90403639e-002 1.18080731e-002 0. 0. 0. 0. 0. 5.90403657e-003
      3.93602438e-002 9.84006096e-003 1.96801219e-003 7.87204877e-002
      2.32225433e-001 3.93602438e-003 0. 9.84006096e-003 0. 0. 0.
      8.46245214e-002 2.61745602e-001 2.95201819e-002 0. 0.</_>
    <_>
      0. 2.43489027e-001 1.70835048e-001 0. 1.96362124e-003
      4.90905307e-002 2.35634539e-002 0. 1.57089699e-002 1.17817275e-001
      6.28358796e-002 0. 9.81810596e-003 2.43489027e-001 8.24720934e-002
      3.92724248e-003 3.92724248e-003 1.96362124e-003 0. 0. 0.
      2.43489027e-001 2.43489027e-001 1.17817270e-002 0. 0. 0. 0. 0.
      1.96362119e-002 2.43489027e-001 7.65812248e-002 8.83629546e-002
      1.90471262e-001 1.02108300e-001 1.96362124e-003 0. 0. 0.
      1.96362124e-003 2.43489027e-001 2.23852813e-001 5.49813919e-002
      5.89086348e-003 1.96362124e-003 1.76725909e-002 2.15998329e-002
      1.06035545e-001 5.69450147e-002 1.76725909e-002 8.63993317e-002
      1.13890029e-001 1.96362119e-002 1.15853652e-001 2.17961952e-001
      6.28358796e-002 0. 3.92724248e-003 4.31996658e-002 1.76725909e-002
      1.96362124e-003 1.96362119e-002 1.92434877e-001 9.81810596e-003
      8.24720934e-002 7.46176019e-002 3.92724248e-003 0. 0. 0. 0. 0.
      2.33670920e-001 2.43489027e-001 2.43489027e-001 2.94543188e-002 0.
      0. 0. 2.15998329e-002 1.76725909e-002 4.51632887e-002
      2.43489027e-001 2.43489027e-001 3.92724248e-003 0. 0.
      5.89086348e-003 0. 1.96362124e-003 5.89086376e-002 3.33815590e-002
      0. 0. 0. 0. 0. 1.76725909e-002 1.96362124e-003 0. 0. 0. 0. 0. 0.
      5.69450147e-002 9.03265774e-002 1.96362124e-003 0. 0. 0. 0. 0.
      3.92724248e-003 8.63993317e-002 1.96362119e-002 0. 0. 0. 0. 0. 0.
      0. 0. 0. 0. 0. 0.</_>
    <_>
      0. 1.37615949e-002 2.55572479e-002 0. 3.53869572e-002
      1.55309424e-001 1.47445664e-001 0. 0. 9.82971024e-003
      2.94891316e-002 1.96594209e-003 1.96594209e-003 1.57275364e-001
      2.45742768e-001 0. 0. 3.93188419e-003 3.93188419e-003 0. 0.
      2.26083338e-001 2.45742768e-001 0. 0. 0. 0. 0. 0. 1.25820294e-001
      8.84673968e-002 0. 0. 5.50463796e-002 9.23992768e-002
      7.86376838e-003 0. 3.93188419e-003 1.37615949e-002 0.
      2.16253642e-002 9.63311642e-002 2.45742768e-001 8.45355093e-002
      1.96594209e-003 2.16253642e-002 7.27398619e-002 1.96594209e-003
      1.57275364e-001 1.33684069e-001 8.45355093e-002 5.89782652e-003
      3.93188419e-003 1.69071019e-001 1.67105079e-001 9.23992768e-002
      1.17956530e-002 1.96594209e-003 3.93188419e-003 1.96594205e-002
      2.55572479e-002 2.45742768e-001 2.45742768e-001 3.73529010e-002 0.
      1.96594209e-003 1.96594209e-003 9.82971024e-003 0. 0. 0. 0.
      1.12058699e-001 6.29101470e-002 3.93188410e-002 9.82971042e-002
      1.96594209e-003 0. 0. 1.96594209e-003 2.45742768e-001
      2.35913053e-001 9.23992768e-002 8.06036294e-002 9.82971024e-003
      5.89782652e-003 1.57275368e-002 1.14024647e-001 3.14550735e-002
      4.32507284e-002 1.43513769e-001 2.45742768e-001 7.47058019e-002
      4.52166684e-002 4.32507284e-002 3.34210172e-002 0. 0. 0. 0. 0. 0.
      0. 0. 2.16253642e-002 3.53869572e-002 1.96594209e-003 0. 0. 0. 0.
      0. 5.30804358e-002 1.96594208e-001 1.71036959e-001 5.70123233e-002
      0. 0. 0. 0. 3.93188419e-003 2.16253642e-002 1.29752174e-001
      1.94628268e-001 0. 0. 0. 0.</_>
    <_>
      1.09820813e-001 1.96108595e-003 0. 0. 0. 0. 0. 2.15719454e-002
      2.96123981e-001 3.33384611e-002 1.96108595e-003 7.84434378e-003
      2.54941173e-002 0. 0. 1.47081450e-001 8.43266919e-002
      4.11828049e-002 1.88264251e-001 1.49042532e-001 1.90225333e-001
      2.35330313e-002 3.92217189e-003 2.94162892e-002 0. 7.84434378e-003
      2.76513129e-001 2.33369231e-001 3.52995470e-002 2.74552032e-002
      5.88325784e-003 0. 1.35314927e-001 5.88325784e-003 0. 0. 0.
      1.96108595e-003 1.76497735e-002 2.15719454e-002 2.96123981e-001
      6.27547503e-002 0. 3.92217189e-003 3.33384611e-002 7.84434378e-003
      0. 2.15719454e-002 1.09820813e-001 9.80542973e-003 1.96108595e-003
      3.33384611e-002 2.96123981e-001 1.64731219e-001 1.56886876e-002
      1.96108595e-003 0. 0. 5.88325784e-003 2.15719454e-002
      3.72606330e-002 1.23548411e-001 3.72606330e-002 0. 7.05990940e-002
      0. 0. 1.96108595e-003 5.88325784e-003 4.70660627e-002
      6.47158325e-002 6.47158325e-002 2.96123981e-001 1.56886876e-002 0.
      1.96108595e-003 1.96108595e-002 1.96108595e-003 5.88325784e-003
      1.27470583e-001 1.05898641e-001 1.17665157e-002 0. 3.33384611e-002
      2.60824442e-001 2.35330313e-002 1.96108595e-003 9.80542973e-003 0.
      0. 0. 7.84434378e-003 2.74552032e-002 3.92217189e-003 0. 0.
      8.43266919e-002 9.80542973e-003 5.88325784e-003 3.92217189e-003
      5.88325784e-003 9.80542973e-003 3.13773751e-002 2.29447052e-001
      1.33353844e-001 1.96108595e-003 0. 0. 0. 0. 9.41321254e-002
      2.96123981e-001 1.76497735e-002 0. 0. 0. 1.56886876e-002
      5.88325784e-003 1.96108595e-002 3.72606330e-002 0. 0. 0. 0. 0. 0.
      0. 0.</_>
    <_>
      4.71192785e-002 2.25779876e-001 0. 0. 0. 0. 0. 0. 1.19761497e-001
      2.88605571e-001 3.92660638e-003 0. 1.96330319e-003 3.33761573e-002
      5.88990981e-003 0. 3.53394598e-002 1.90440416e-001 3.92660638e-003
      0. 6.47890046e-002 2.29706481e-001 1.96330324e-002 0. 0. 0. 0. 0.
      1.76697299e-002 5.30091897e-002 1.96330319e-003 0. 2.35596392e-002
      1.96330324e-002 0. 0. 0. 0. 3.73027623e-002 7.06789196e-002
      2.17926666e-001 2.88605571e-001 0. 0. 0. 3.92660638e-003
      3.33761573e-002 4.90825810e-002 2.88605571e-001 2.88605571e-001
      3.92660638e-003 0. 5.88990981e-003 2.55229417e-002 3.92660638e-003
      1.02091767e-001 3.53394598e-002 1.96330319e-003 0. 0. 0.
      1.37431230e-002 1.96330319e-003 3.53394598e-002 7.85321295e-002
      4.90825810e-002 2.55229417e-002 5.88990981e-003 3.92660638e-003
      5.88990981e-003 4.51559760e-002 9.03119519e-002 2.02220231e-001
      5.10458834e-002 3.53394598e-002 1.76697299e-002 1.57064255e-002
      2.74862461e-002 4.90825810e-002 8.04954320e-002 2.88605571e-001
      2.14000061e-001 5.88990981e-003 0. 0. 0. 0. 2.25779876e-001
      6.28257021e-002 4.31926735e-002 1.96330319e-003 0. 0. 0. 0.
      4.12293673e-002 1.37431230e-002 6.87156171e-002 5.88990971e-002
      1.96330319e-003 0. 0. 0. 0. 5.69357947e-002 1.74733996e-001
      7.26422220e-002 9.81651619e-003 0. 0. 0. 0. 1.64917469e-001
      2.88605571e-001 9.81651619e-003 0. 0. 0. 0. 1.96330319e-003
      1.57064255e-002 8.63853469e-002 3.92660638e-003 0. 0. 0. 0. 0.</_>
    <_>
      3.93200573e-003 4.91500720e-002 1.35654196e-001 1.96600296e-002 0.
      3.34220491e-002 9.04361382e-002 0. 3.34220491e-002 6.88101053e-002
      3.93200591e-002 0. 0. 1.98566303e-001 1.59246236e-001
      2.35920344e-002 1.96600286e-003 0. 0. 0. 0. 2.39852354e-001
      2.39852354e-001 9.83001478e-003 0. 0. 0. 0. 0. 6.48780987e-002
      2.39852354e-001 9.83001478e-003 8.65041316e-002 5.30820787e-002
      7.47081116e-002 8.84701312e-002 1.96600286e-003 0. 0.
      5.89800859e-003 2.39852354e-001 1.19926177e-001 3.73540558e-002
      2.94900443e-002 7.86401145e-003 1.76940262e-002 4.12860624e-002
      1.76940262e-001 3.14560458e-002 1.96600296e-002 6.29120916e-002
      2.39852354e-001 9.43681374e-002 1.49416223e-001 1.55314237e-001
      5.89800887e-002 9.83001478e-003 1.14028171e-001 1.27790183e-001
      3.93200591e-002 9.83001478e-003 5.50480820e-002 2.12328315e-001
      3.93200591e-002 7.27421045e-002 6.48780987e-002 7.86401145e-003
      7.86401145e-003 0. 0. 0. 0. 2.28056341e-001 2.39852354e-001
      2.10362315e-001 9.63341445e-002 1.96600286e-003 0. 0.
      1.37620205e-002 1.17960172e-002 4.32520658e-002 2.39852354e-001
      2.39852354e-001 2.16260329e-002 0. 0. 1.96600286e-003
      6.48780987e-002 1.69076249e-001 1.65144250e-001 4.32520658e-002 0.
      0. 0. 9.83001478e-003 0. 7.86401145e-003 0. 0. 0. 0. 0. 0. 0.
      4.71840687e-002 8.06061178e-002 1.57280229e-002 0. 0. 0. 0.
      3.93200573e-003 5.89800859e-003 5.30820787e-002 5.30820787e-002 0.
      0. 3.93200573e-003 0. 1.12062164e-001 7.86401182e-002
      5.89800859e-003 0. 0. 0. 0. 5.89800859e-003</_>
    <_>
      5.90767572e-003 0. 0. 5.90767572e-003 1.96922524e-003 0. 0.
      1.18153514e-002 1.37845762e-002 0. 0. 0. 0. 1.18153514e-002
      9.64920372e-002 1.02399707e-001 7.87690096e-003 0. 0. 0. 0.
      8.66459087e-002 1.26030415e-001 1.77230258e-002 5.71075305e-002
      1.96922524e-003 0. 0. 0. 7.87690096e-003 9.84612573e-003
      1.57538019e-002 7.48305544e-002 0. 0. 1.96922524e-003 0.
      1.18153514e-002 1.57538019e-002 3.74152772e-002 2.50091583e-001
      1.77230258e-002 0. 0. 1.96922524e-003 4.13537286e-002
      1.31938085e-001 2.50091583e-001 5.31690791e-002 9.84612573e-003
      1.96922524e-003 5.90767572e-003 9.05843601e-002 2.50091583e-001
      2.22522438e-001 7.08921030e-002 6.30152076e-002 3.93845048e-003 0.
      9.84612573e-003 1.37845762e-002 1.00430481e-001 9.45228115e-002
      1.47691891e-001 3.54460515e-002 0. 0. 0. 9.84612573e-003
      9.64920372e-002 1.35876536e-001 1.22091964e-001 2.50091583e-001
      8.27074572e-002 3.74152772e-002 2.95383781e-002 7.87690096e-003
      5.90767572e-003 6.10459819e-002 1.94953293e-001 7.08921030e-002
      5.71075305e-002 1.73291817e-001 2.50091583e-001 1.22091964e-001
      1.02399707e-001 1.96922515e-002 9.84612573e-003 0. 0.
      1.91014841e-001 2.06768647e-001 2.16614772e-002 3.54460515e-002
      5.51383048e-002 4.33229543e-002 7.87690096e-003 1.96922524e-003
      2.36307029e-002 3.74152772e-002 1.57538019e-002 2.75691524e-002
      1.08307384e-001 1.81168720e-001 1.37845762e-002 5.90767572e-003
      5.51383048e-002 2.50091583e-001 6.49844334e-002 9.84612573e-003
      6.89228848e-002 9.45228115e-002 1.96922524e-003 3.93845048e-003
      1.73291817e-001 2.50091583e-001 9.84612573e-003 0. 0. 0. 0. 0.
      1.41784206e-001 1.12245835e-001 0. 0. 0. 0.</_>
    <_>
      5.89522952e-003 0. 0. 0. 0. 0. 0. 0. 1.29695043e-001 0. 0. 0. 0.
      0. 0. 5.50221428e-002 2.86901176e-001 2.16158424e-002
      1.57206114e-002 1.37555357e-002 1.57206114e-002 0. 0.
      2.20088571e-001 1.12009361e-001 1.00218900e-001 2.86901176e-001
      1.08079210e-001 3.53713781e-002 2.94761471e-002 3.14412229e-002
      3.53713781e-002 3.93015286e-003 0. 0. 0. 0. 0. 5.89522952e-003
      5.89522952e-003 2.82971025e-001 1.76856890e-002 0. 0. 0. 0.
      1.96507643e-003 2.75110714e-002 2.86901176e-001 7.27078319e-002
      5.89522952e-003 2.55459938e-002 1.08079210e-001 1.57206114e-002 0.
      7.07427561e-002 1.96507648e-002 5.89522952e-003 1.12009361e-001
      1.12009361e-001 2.35809177e-001 1.15939513e-001 1.76856890e-002
      3.93015286e-003 1.37555357e-002 0. 0. 0. 0. 2.16158424e-002
      8.64633694e-002 5.50221428e-002 2.10263193e-001 1.96507643e-003 0.
      0. 1.96507643e-003 2.94761471e-002 6.09173700e-002 6.48475215e-002
      2.86901176e-001 2.55459938e-002 0. 5.89522952e-003 8.25332105e-002
      1.57206114e-002 0. 4.71618362e-002 2.75110714e-002 1.96507643e-003
      0. 3.14412229e-002 2.22053647e-001 7.66379833e-002 9.82538238e-003
      0. 5.10919876e-002 6.68126047e-002 1.76856890e-002 5.89522952e-003
      5.89522952e-003 1.57206114e-002 2.16158424e-002 3.14412229e-002
      8.64633694e-002 5.89522952e-003 5.89522952e-003 5.89522952e-003
      1.17904590e-002 2.75110714e-002 5.50221428e-002 2.51529783e-001
      2.45634571e-001 5.89522952e-003 0. 1.96507643e-003 1.96507648e-002
      3.93015286e-003 5.50221428e-002 2.86901176e-001 7.86030572e-003 0.
      0. 3.93015286e-003 4.71618362e-002 5.89522952e-003 3.93015286e-003
      7.86030572e-003</_>
    <_>
      7.84844998e-003 2.53112495e-001 7.84844980e-002 0. 1.96211250e-003
      1.96211250e-003 0. 0. 1.17726745e-002 2.53112495e-001
      4.51285876e-002 0. 5.88633725e-003 1.62855327e-001 3.13937999e-002
      0. 0. 3.53180245e-002 7.84844998e-003 0. 2.15832368e-002
      2.53112495e-001 1.17726745e-002 0. 0. 0. 0. 0. 3.92422499e-003
      2.11908147e-001 7.84844998e-003 0. 3.92422499e-003 1.02029845e-001
      1.13802522e-001 3.92422499e-003 0. 0. 0. 0. 3.53180245e-002
      2.53112495e-001 1.33423641e-001 1.96211250e-003 0. 5.88633725e-003
      0. 3.92422499e-003 1.15764633e-001 2.53112495e-001 4.51285876e-002
      1.96211250e-003 2.35453490e-002 2.06021801e-001 1.37347868e-002
      4.51285876e-002 7.84844998e-003 1.96211250e-003 0. 0.
      9.81056225e-003 2.53112495e-001 1.53044775e-001 1.37347868e-002 0.
      1.17726745e-002 1.76590122e-002 0. 0. 0. 0. 0. 1.94249138e-001
      9.22192857e-002 9.81056225e-003 0. 0. 0. 0. 2.74695735e-002
      2.53112495e-001 1.86400682e-001 9.81056243e-002 1.96211245e-002 0.
      9.81056225e-003 1.37347868e-002 1.86400682e-001 1.76590122e-002
      1.96211245e-002 1.60893217e-001 8.43708366e-002 1.17726745e-002
      9.22192857e-002 9.41813961e-002 3.53180245e-002 0. 1.96211250e-003
      0. 0. 0. 0. 0. 0. 3.92422490e-002 8.04466084e-002 5.88633725e-003
      0. 0. 0. 0. 0. 5.10149226e-002 2.04059690e-001 2.43301943e-001
      1.76590122e-002 0. 0. 0. 0. 0. 1.17726745e-002 2.17794478e-001
      5.10149226e-002 0. 0. 0. 0.</_>
    <_>
      1.56988334e-002 0. 0. 0. 0. 0. 0. 2.74729598e-002 1.17741255e-002
      1.96235417e-003 0. 0. 0. 3.92470835e-003 8.43812302e-002
      1.02042422e-001 0. 3.92470835e-003 0. 0. 0. 7.26071075e-002
      1.23628318e-001 1.37364799e-002 0. 3.92470835e-003 7.84941670e-003
      1.96235417e-003 1.96235417e-003 2.55106054e-002 3.92470835e-003 0.
      7.45694637e-002 0. 0. 0. 0. 3.92470835e-003 3.33600231e-002
      7.45694637e-002 2.23708376e-001 4.70965020e-002 3.92470835e-003
      1.96235417e-003 1.96235417e-003 2.15858966e-002 1.47176564e-001
      2.23708376e-001 2.15858966e-002 1.56988334e-002 7.84941670e-003
      2.15858966e-002 1.62875399e-001 2.23708376e-001 2.11934254e-001
      5.29835634e-002 0. 0. 0. 0. 7.65318125e-002 1.47176564e-001
      2.74729598e-002 1.56988334e-002 4.70965020e-002 1.96235417e-003 0.
      0. 1.96235417e-003 2.11934254e-001 2.23708376e-001 5.69082722e-002
      2.23708376e-001 1.31477728e-001 1.96235422e-002 7.84941670e-003
      1.96235417e-003 2.35482510e-002 1.02042422e-001 1.78574234e-001
      2.74729598e-002 5.29835634e-002 4.12094370e-002 7.26071075e-002
      1.64837748e-001 9.81177092e-002 1.56988338e-001 3.33600231e-002
      1.96235417e-003 0. 0. 1.96235417e-003 5.69082722e-002
      1.19703606e-001 2.23708376e-001 4.70965020e-002 1.56988334e-002
      9.81177110e-003 4.31717932e-002 6.27953336e-002 5.49459197e-002
      2.17821315e-001 1.09891839e-001 3.72847319e-002 1.37364799e-002
      1.56988334e-002 1.74649522e-001 3.53223756e-002 1.96235417e-003
      3.33600231e-002 1.39327154e-001 1.78574234e-001 5.88706275e-003
      1.96235422e-002 2.23708376e-001 5.69082722e-002 0. 2.35482510e-002
      1.49138927e-001 3.92470844e-002 3.92470835e-003 1.76611878e-002
      2.23708376e-001 9.02682915e-002 5.88706275e-003 2.94353142e-002
      1.49138927e-001 2.55106054e-002</_>
    <_>
      3.53594311e-002 1.00185059e-001 6.48256242e-002 8.64341632e-002
      4.12526689e-002 2.16085408e-002 1.96441282e-002 1.37508903e-002
      4.71459106e-002 1.68939501e-001 7.46476874e-002 5.89323882e-003
      8.05409253e-002 1.63046271e-001 9.82206408e-003 7.85765145e-003
      3.92882572e-003 1.96441286e-003 0. 0. 7.26832747e-002
      2.59302497e-001 5.30391484e-002 5.89323882e-003 0. 0. 0. 0. 0.
      1.84654817e-001 1.76797155e-002 0. 7.46476874e-002 6.28612116e-002
      1.53224200e-001 1.63046271e-001 9.82206408e-003 0. 0.
      1.96441286e-003 2.59302497e-001 1.68939501e-001 5.10747358e-002
      1.17864776e-002 1.96441286e-003 1.57153029e-002 2.35729553e-002
      1.43402144e-001 4.91103232e-002 1.96441282e-002 4.71459106e-002
      1.06078297e-001 7.07188621e-002 2.59302497e-001 1.00185059e-001
      7.07188621e-002 0. 1.96441286e-003 1.37508903e-002 1.76797155e-002
      3.53594311e-002 2.59302497e-001 7.26832747e-002 0. 6.28612116e-002
      8.25053379e-002 3.14306058e-002 5.89323882e-003 0. 0. 0. 0.
      2.25907475e-001 2.59302497e-001 2.04298943e-001 2.16085408e-002 0.
      0. 0. 1.76797155e-002 1.57153029e-002 1.02149472e-001
      2.59302497e-001 2.37693965e-001 1.76797155e-002 7.85765145e-003 0.
      5.89323882e-003 0. 9.42918211e-002 2.14120999e-001 2.94661932e-002
      1.17864776e-002 6.28612116e-002 2.16085408e-002 0. 0.
      2.35729553e-002 5.89323882e-003 0. 0. 0. 0. 0. 0. 9.23274085e-002
      8.64341632e-002 0. 0. 0. 0. 0. 0. 7.26832747e-002 1.57153025e-001
      9.82206408e-003 0. 0. 0. 0. 0. 5.69679737e-002 1.41437724e-001
      3.92882572e-003 0. 0. 0. 0.</_>
    <_>
      3.92466318e-003 0. 0. 0. 0. 0. 0. 2.55103093e-002 1.76609848e-002
      0. 0. 0. 0. 0. 6.86816052e-002 8.04555938e-002 1.66798189e-001
      1.07928239e-001 1.96233159e-003 0. 0. 5.88699477e-003
      7.84932598e-002 5.49452826e-002 8.63425881e-002 1.23626888e-001
      4.31712940e-002 1.76609848e-002 2.15856470e-002 1.76609848e-002
      2.94349734e-002 7.26062655e-002 7.84932598e-002 0. 0. 0. 0. 0. 0.
      1.05965905e-001 1.94270819e-001 1.56986527e-002 0. 0. 0.
      2.55103093e-002 2.31555119e-001 2.59027779e-001 4.12089638e-002
      1.17739895e-002 1.96233159e-003 7.84932636e-003 1.76609848e-002
      1.88383833e-001 2.59027779e-001 1.51099533e-001 6.86816052e-002
      1.17739895e-002 7.26062655e-002 8.04555938e-002 3.92466318e-003
      1.17739895e-002 7.06439391e-002 2.19781131e-001 1.49137199e-001
      5.88699477e-003 0. 0. 0. 0. 0. 1.05965905e-001 2.59027779e-001
      1.88383833e-001 2.15856470e-002 1.17739895e-002 1.96233159e-003
      7.84932636e-003 1.76609848e-002 1.21664554e-001 4.70959581e-002
      8.24179277e-002 8.04555938e-002 2.59027779e-001 8.24179277e-002
      8.63425881e-002 5.49452826e-002 1.96233150e-002 3.92466318e-003
      1.96233159e-003 1.55024186e-001 2.59027779e-001 1.96233150e-002
      5.88699477e-003 7.84932636e-003 9.81165748e-003 1.55024186e-001
      1.96233159e-003 0. 0. 0. 0. 0. 8.83049220e-002 1.49137199e-001
      2.35479791e-002 2.35479791e-002 1.19702227e-001 2.15856470e-002 0.
      0. 1.04003571e-001 7.84932636e-003 1.37363207e-002 7.26062655e-002
      2.59027779e-001 2.55103093e-002 0. 0. 0. 0. 0. 1.56986527e-002
      1.86421499e-001 0. 0. 0. 0.</_>
    <_>
      9.41895545e-002 2.51172155e-001 5.88684715e-003 0. 0. 0. 0. 0.
      7.26044476e-002 2.51172155e-001 1.31472930e-001 7.84913003e-002
      7.65290186e-002 3.92456502e-002 3.92456492e-003 5.88684715e-003
      1.96228246e-003 5.88684715e-003 1.56982597e-002 2.09964216e-001
      2.31549323e-001 7.65290186e-002 3.92456492e-003 1.96228246e-003 0.
      0. 0. 5.88684715e-002 3.92456502e-002 1.56982597e-002 0. 0.
      9.02649909e-002 3.72833647e-002 0. 0. 0. 0. 0. 1.17736943e-002
      2.51172155e-001 1.04000971e-001 1.37359770e-002 7.84912985e-003
      1.56982597e-002 4.31702137e-002 2.35473886e-002 1.29510641e-001
      5.29816262e-002 7.84912985e-003 3.92456492e-003 3.13965194e-002
      1.94265962e-001 2.51172155e-001 3.33588012e-002 4.31702137e-002 0.
      0. 0. 5.88684715e-003 7.65290186e-002 1.72680855e-001 0. 0.
      1.04000971e-001 1.17736943e-002 0. 0. 0. 0. 0. 5.88684715e-003
      2.51172155e-001 1.47171184e-001 9.81141254e-003 2.15851068e-002
      1.17736943e-002 3.92456492e-003 0. 1.76605415e-002 7.45667294e-002
      5.29816262e-002 1.56982597e-002 2.51172155e-001 2.51172155e-001
      8.43781456e-002 1.96228246e-003 5.88684715e-003 0. 0. 0.
      1.25586078e-001 1.43246621e-001 4.70947772e-002 0. 0.
      3.53210829e-002 1.76605415e-002 0. 0. 0. 0. 0. 0. 2.27624759e-001
      2.00152814e-001 0. 3.92456492e-003 3.92456492e-003 0. 0.
      3.92456492e-003 1.15774661e-001 6.08307570e-002 1.96228246e-003
      3.33588012e-002 1.70718566e-001 1.76605418e-001 5.88684715e-003
      1.76605415e-002 0. 0. 0. 2.35473886e-002 1.19699232e-001
      9.22272727e-002 0. 0.</_>
    <_>
      7.06095472e-002 7.06095472e-002 1.76523868e-002 0. 0. 0.
      3.92275257e-003 3.92275266e-002 2.31442407e-001 1.43180475e-001
      1.56910103e-002 0. 1.96137633e-002 1.96137633e-002 1.96137629e-003
      1.37296347e-002 4.51116562e-002 3.72661501e-002 3.92275257e-003
      1.96137629e-003 2.31442407e-001 1.96137637e-001 1.17682582e-002
      1.96137629e-003 0. 0. 1.96137629e-003 1.37296347e-002
      5.68799153e-002 9.02233124e-002 4.90344092e-002 1.96137629e-003
      5.88412909e-003 7.84550533e-002 1.96137633e-002 1.96137629e-003
      1.96137629e-003 0. 0. 0. 1.37296349e-001 2.43210673e-001
      1.96137633e-002 0. 1.96137629e-003 0. 0. 1.17682582e-002
      1.52987361e-001 1.49064600e-001 9.80688166e-003 5.88412909e-003
      1.09837078e-001 1.84369385e-001 4.31502797e-002 9.02233124e-002 0.
      0. 1.96137629e-003 1.96137633e-002 7.06095472e-002 2.43210673e-001
      1.00030191e-001 3.92275266e-002 1.96137629e-003 5.88412909e-003
      3.92275257e-003 1.17682582e-002 5.88412909e-003 0. 0. 0.
      2.43210673e-001 8.63005593e-002 0. 0. 0. 0. 0. 3.92275266e-002
      2.43210673e-001 1.78485245e-001 3.92275266e-002 7.84550514e-003
      2.35365164e-002 1.15721203e-001 7.06095472e-002 2.35365167e-001
      9.80688166e-003 1.76523868e-002 2.94206459e-002 2.54978929e-002
      1.37296349e-001 2.43210673e-001 8.04164335e-002 4.51116562e-002
      3.92275257e-003 1.96137629e-003 0. 5.88412909e-003 1.96137629e-003
      0. 0. 0. 1.52987361e-001 8.43391865e-002 0. 0. 0. 0. 0. 0.
      2.43210673e-001 2.43210673e-001 7.64936805e-002 3.92275257e-003
      5.88412909e-003 1.96137629e-003 0. 0. 1.19643956e-001
      1.13759831e-001 4.11889032e-002 1.56910103e-002 9.80688184e-002
      1.51025981e-001 9.80688166e-003 7.84550514e-003</_>
    <_>
      3.34706642e-002 0. 0. 0. 0. 0. 0. 3.34706642e-002 7.48167783e-002
      1.18131749e-002 1.96886249e-003 0. 0. 7.87544996e-003
      1.35851517e-001 1.89010799e-001 2.36263499e-001 5.90658747e-003
      3.93772498e-003 5.90658747e-003 3.93772498e-003 1.57508999e-002
      1.08287439e-001 2.36263499e-001 1.26007199e-001 7.87544996e-003
      5.90658747e-003 1.73259899e-001 1.39789239e-001 1.18131749e-002
      1.57508999e-002 9.64742675e-002 8.46610889e-002 1.96886249e-002 0.
      0. 0. 0. 0. 1.77197624e-002 1.89010799e-001 2.26419196e-001
      8.66299495e-002 3.93772498e-003 0. 7.87544996e-003 3.34706642e-002
      7.08790496e-002 2.36263499e-001 1.00411989e-001 7.28479177e-002
      1.96886249e-002 1.18131749e-002 2.75640748e-002 4.52838391e-002
      1.57508999e-001 6.69413283e-002 1.57508999e-002 2.55952124e-002
      1.79166496e-001 2.36263499e-001 1.18131749e-001 1.77197624e-002
      5.11904247e-002 7.28479177e-002 1.57508999e-002 0. 0. 0. 0.
      1.96886249e-003 3.34706642e-002 1.47664696e-001 7.08790496e-002
      1.57508999e-002 0. 0. 3.93772498e-003 4.13461141e-002
      1.06318578e-001 2.36263499e-001 1.02380849e-001 1.08287439e-001
      9.64742675e-002 3.74083892e-002 3.93772498e-003 5.90658747e-003
      9.05676782e-002 1.77197624e-002 2.55952124e-002 1.47664696e-001
      2.36263499e-001 1.33882657e-001 7.87544996e-003 0. 1.96886249e-003
      5.11904247e-002 2.36263499e-002 0. 0. 0. 0. 0. 9.84431244e-003
      2.08699435e-001 4.13461141e-002 1.96886249e-003 5.90658747e-003 0.
      0. 0. 1.73259899e-001 7.87544996e-002 0. 5.90658747e-003
      1.08287439e-001 1.90979674e-001 1.57508999e-002 3.93772498e-003
      1.14194028e-001 0. 0. 7.87544996e-003 8.46610889e-002
      1.63415596e-001 7.87544996e-003 0. 0.</_>
    <_>
      3.14151533e-002 8.24647769e-002 3.92689416e-003 0. 0. 0. 0. 0.
      1.74746796e-001 1.84564024e-001 3.92689416e-003 1.96344708e-003
      3.53420489e-002 7.85378832e-003 1.96344708e-003 2.74882596e-002
      2.35613640e-002 2.15979181e-002 5.89034101e-003 1.37441298e-002
      2.08125398e-001 1.11916482e-001 1.76710244e-002 1.37441298e-002 0.
      0. 3.92689416e-003 2.35613640e-002 5.30130714e-002 5.69399670e-002
      3.33786011e-002 1.96344708e-003 6.87206462e-002 1.37441298e-002 0.
      3.92689416e-003 0. 0. 0. 7.85378832e-003 2.41503984e-001
      6.67572021e-002 1.96344708e-003 0. 1.96344708e-003 1.57075766e-002
      3.14151533e-002 2.41503984e-001 6.08668588e-002 2.15979181e-002
      7.85378832e-003 9.81723517e-003 1.66893005e-001 2.41503984e-001
      9.81723517e-002 1.17806822e-001 3.92689416e-003 1.96344708e-003
      1.57075766e-002 3.33786011e-002 7.46109858e-002 1.51185423e-001
      1.51185423e-001 4.71227281e-002 8.24647769e-002 7.85378832e-003 0.
      0. 0. 0. 0. 5.89034101e-003 2.41503984e-001 2.41503984e-001
      2.74882596e-002 1.96344708e-003 0. 1.96344708e-003 1.96344708e-003
      3.92689407e-002 1.51185423e-001 1.76710233e-001 6.08668588e-002
      3.14151533e-002 2.00271606e-001 1.35477841e-001 1.37441298e-002
      2.74882596e-002 3.92689416e-003 3.92689416e-003 4.31958362e-002
      1.27624065e-001 2.37577096e-001 1.17806822e-001 7.85378832e-003
      9.81723517e-003 4.12323885e-002 1.96344703e-002 0. 0. 0. 0. 0.
      1.96344708e-003 2.29723305e-001 1.35477841e-001 0. 0. 0. 0. 0.
      7.85378832e-003 2.41503984e-001 1.19770274e-001 5.89034101e-003
      3.53420489e-002 8.83551165e-002 4.12323885e-002 1.96344708e-003
      1.17806820e-002 5.89034101e-003 3.92689416e-003 1.96344708e-003
      8.63916725e-002 2.41503984e-001 9.22820121e-002 0. 0.</_>
    <_>
      3.92060401e-003 0. 0. 0. 0. 0. 0. 1.96030200e-003 4.50869463e-002
      0. 0. 0. 0. 0. 0. 1.37221143e-002 4.50869463e-002 0. 0. 0. 0. 0.
      0. 1.96030196e-002 0. 0. 0. 0. 0. 0. 0. 0. 1.56824160e-002
      1.96030200e-003 0. 0. 0. 0. 0. 0. 3.09727728e-001 1.56824160e-002
      0. 0. 0. 0. 0. 3.72457393e-002 3.09727728e-001 1.37221143e-002 0.
      1.37221143e-002 3.33251357e-002 0. 0. 2.33275935e-001
      5.09678535e-002 1.96030200e-003 0. 1.31340235e-001 1.66625679e-001
      0. 0. 3.33251357e-002 7.84120802e-003 5.88090625e-003 0. 0. 0. 0.
      0. 0. 2.94045299e-001 1.09776914e-001 0. 0. 0. 0. 0.
      1.96030200e-003 3.09727728e-001 3.09727728e-001 6.66502714e-002
      5.29281534e-002 7.05708712e-002 0. 0. 4.50869463e-002
      4.11663428e-002 1.01935707e-001 6.07693642e-002 2.50918657e-001
      3.09727728e-001 1.76427178e-002 0. 7.84120802e-003 3.92060401e-003
      3.92060401e-003 0. 0. 0. 0. 0. 0. 3.72457393e-002 6.86105713e-002
      0. 0. 0. 0. 0. 0. 1.94069907e-001 3.09727728e-001 3.13648321e-002
      7.84120802e-003 3.92060401e-003 0. 0. 0. 1.29379928e-001
      1.39181450e-001 3.13648321e-002 2.74442285e-002 1.50943249e-001
      1.25459328e-001 1.96030200e-003 5.88090625e-003</_>
    <_>
      3.93268988e-002 1.96634489e-003 0. 0. 0. 0. 3.93268988e-002
      1.23879731e-001 1.57307591e-002 1.96634489e-003 0. 3.93268978e-003
      2.75288299e-002 1.33711457e-001 2.12365255e-001 1.04216285e-001
      1.04216285e-001 0. 0. 0. 1.17980698e-002 6.88220710e-002
      5.50576597e-002 2.30062366e-001 1.39610499e-001 3.93268978e-003 0.
      6.29230365e-002 8.84855241e-002 1.96634489e-003 1.96634489e-003
      1.67139322e-001 1.37644142e-001 1.57307595e-001 3.34278643e-002 0.
      0. 0. 3.93268978e-003 5.11249676e-002 8.45528319e-002
      1.14048012e-001 1.57307595e-001 1.17980696e-001 6.88220710e-002
      5.89903481e-002 3.34278643e-002 5.30913137e-002 2.30062366e-001
      1.37644149e-002 7.86537956e-003 4.32595909e-002 3.93268988e-002
      2.94951741e-002 1.57307591e-002 2.30062366e-001 3.93268988e-002 0.
      1.96634489e-003 2.02533528e-001 2.06466228e-001 5.89903491e-003
      3.93268978e-003 9.83172506e-002 1.17980698e-002 1.10115319e-001
      2.75288299e-002 0. 0. 0. 0. 0. 1.98600844e-001 1.33711457e-001
      1.08148970e-001 1.57307591e-002 0. 0. 0. 5.89903491e-003
      2.30062366e-001 4.71922792e-002 9.83172469e-003 4.52259332e-002
      8.06201473e-002 0. 0. 5.50576597e-002 1.96634494e-002
      3.93268978e-003 1.57307591e-002 2.30062366e-001 2.30062366e-001 0.
      0. 3.93268978e-003 1.76971052e-002 5.89903491e-003 0. 0. 0. 0. 0.
      5.89903491e-003 2.00567186e-001 3.14615183e-002 0. 0. 0. 0. 0.
      2.35961396e-002 2.30062366e-001 1.25846073e-001 6.48893863e-002
      1.00283593e-001 3.14615183e-002 0. 0. 3.93268978e-003
      1.96634489e-003 5.89903491e-003 1.96634494e-002 2.00567186e-001
      1.71072006e-001 0. 0. 0.</_>
    <_>
      5.10875508e-002 0. 0. 1.96490576e-003 0. 0. 0. 4.71577384e-002
      6.28769845e-002 0. 0. 0. 0. 1.96490586e-002 5.10875508e-002
      2.27929071e-001 0. 0. 0. 0. 1.27718881e-001 1.27718881e-001
      5.10875508e-002 3.34034003e-002 0. 0. 0. 5.89471729e-003
      9.03856680e-002 2.35788692e-002 0. 0. 1.92560762e-001
      7.85962306e-003 0. 0. 0. 0. 0. 2.16139629e-002 2.65262276e-001
      2.16139629e-002 0. 0. 1.17894346e-002 5.69822676e-002
      5.69822676e-002 2.27929071e-001 2.55437754e-002 1.96490576e-003 0.
      0. 2.65262276e-001 2.65262276e-001 5.50173633e-002 4.12630215e-002
      0. 0. 0. 0. 1.06104910e-001 1.47367939e-001 3.14384922e-002 0.
      1.43438131e-001 5.89471729e-003 0. 0. 0. 0. 3.92981153e-003
      1.10034727e-001 2.65262276e-001 9.43154767e-002 0. 0.
      1.76841523e-002 1.37543408e-002 3.92981153e-003 9.43154767e-002
      1.04140006e-001 2.16139629e-002 0. 1.96490576e-003 2.65262276e-001
      2.18104541e-001 5.89471729e-003 1.37543408e-002 2.16139629e-002
      1.96490576e-003 0. 0. 1.19859256e-001 1.19859256e-001
      1.23789065e-001 9.62803811e-002 1.10034727e-001 5.89471757e-002 0.
      0. 0. 0. 3.92981153e-003 9.62803811e-002 2.65262276e-001
      3.92981172e-002 0. 5.89471729e-003 7.85962306e-003 1.96490576e-003
      0. 1.45403028e-001 8.44909474e-002 3.92981153e-003 3.92981153e-003
      1.19859256e-001 2.65262276e-001 4.32279259e-002 0. 2.35788692e-002
      5.89471757e-002 8.44909474e-002 5.30524552e-002 5.69822676e-002
      9.03856680e-002 1.96490586e-002 9.82452929e-003 4.12630215e-002</_>
    <_>
      0. 0. 0. 5.89647051e-003 1.37584312e-002 0. 7.86196068e-003
      1.37584312e-002 9.82745066e-002 3.93098034e-003 0. 0. 0. 0.
      1.57239214e-002 1.51342750e-001 1.06136471e-001 1.17929410e-002 0.
      0. 1.96549017e-003 0. 1.15963921e-001 2.41755292e-001
      1.17929410e-002 0. 0. 1.13998428e-001 7.66541213e-002
      1.96549017e-003 4.32407856e-002 1.80825099e-001 6.28956854e-002 0.
      0. 1.96549017e-003 0. 7.86196068e-003 8.45160782e-002
      1.86721563e-001 1.53308243e-001 3.53788249e-002 0. 0.
      1.76894125e-002 1.19894899e-001 1.70997649e-001 1.25791371e-001
      2.41755292e-001 1.23825885e-001 1.96549017e-003 3.93098034e-003
      2.75168624e-002 2.16203928e-002 3.14478427e-002 1.17929414e-001
      3.73443142e-002 3.93098034e-003 3.93098034e-003 1.27756864e-001
      2.41755292e-001 3.34133320e-002 1.76894125e-002 2.16203928e-002
      2.29962349e-001 1.57239214e-001 1.96549017e-002 1.96549017e-003
      3.93098034e-003 7.86196068e-003 1.76894125e-002 9.04125497e-002
      9.63090211e-002 9.23780426e-002 3.93098034e-002 1.57239214e-002
      8.45160782e-002 1.35618821e-001 1.02205493e-001 1.25791371e-001
      2.29962349e-001 4.52062748e-002 1.15963921e-001 1.37584314e-001
      5.89647070e-002 2.55513731e-002 5.30682355e-002 1.49377257e-001
      1.96549017e-002 1.17929410e-002 1.15963921e-001 2.41755292e-001
      2.39789799e-001 7.86196068e-003 0. 3.93098034e-003 6.87921569e-002
      7.46886283e-002 5.89647051e-003 0. 0. 0. 0. 9.82745085e-003
      1.90652549e-001 6.09301962e-002 1.17929410e-002 1.96549017e-003
      2.55513731e-002 5.89647051e-003 1.37584312e-002 6.09301962e-002
      1.37584312e-002 0. 2.94823535e-002 1.35618821e-001 1.67066664e-001
      9.82745085e-003 1.37584312e-002 2.75168624e-002 0. 0.
      4.12752926e-002 1.45446271e-001 1.57239214e-002 0. 0. 0.</_>
    <_>
      5.90608409e-003 0. 0. 0. 0. 0. 0. 7.87477847e-003 7.28417039e-002
      1.96869462e-003 0. 0. 0. 0. 3.93738924e-003 1.16152987e-001
      1.79151207e-001 4.72486727e-002 1.37808630e-002 4.33112830e-002
      5.31547554e-002 5.90608409e-003 3.93738924e-003 5.31547554e-002
      7.87477847e-003 9.84347332e-003 7.87477847e-003 3.54365036e-002
      1.22059070e-001 1.20090373e-001 4.72486727e-002 5.90608409e-003
      1.00403428e-001 1.96869462e-003 0. 0. 0. 0. 0. 4.72486727e-002
      2.55930305e-001 1.57495569e-002 0. 0. 5.90608409e-003
      9.84347332e-003 5.90608381e-002 2.55930305e-001 7.87477866e-002
      2.55930312e-002 2.55930312e-002 1.00403428e-001 2.32305974e-001
      8.26851726e-002 7.87477866e-002 1.69307739e-001 2.75617260e-002
      1.41746014e-001 1.02372125e-001 1.02372125e-001 7.67790899e-002
      4.13425863e-002 2.16556415e-002 9.84347332e-003 1.57495573e-001
      2.16556415e-002 0. 0. 0. 0. 0. 1.18121682e-002 2.55930305e-001
      1.92932084e-001 0. 5.90608409e-003 1.18121682e-002 3.93738924e-003
      5.90608409e-003 7.48104006e-002 8.46538693e-002 6.29982278e-002
      1.18121682e-002 5.70921451e-002 2.55930305e-001 2.10650325e-001
      9.84347332e-003 1.57495569e-002 0. 2.75617260e-002 5.51234521e-002
      6.69356212e-002 2.14587718e-001 1.55526876e-001 0. 0.
      7.87477866e-002 1.96869462e-003 0. 0. 0. 0. 0. 1.06309511e-001
      2.55930305e-001 2.36243363e-002 3.93738924e-003 2.36243363e-002
      7.87477847e-003 0. 0. 1.75213829e-001 5.90608381e-002
      1.37808630e-002 3.93738933e-002 2.55930305e-001 9.64660421e-002
      1.57495569e-002 0. 9.84347332e-003 0. 0. 5.90608409e-003
      2.00806856e-001 1.49620801e-001 1.57495569e-002 0. 0.</_>
    <_>
      5.30878231e-002 1.96621567e-003 0. 0. 0. 0. 0. 5.89864701e-003
      2.69371569e-001 1.37635097e-002 0. 0. 0. 0. 0. 4.52229604e-002
      2.69371569e-001 1.43533751e-001 8.25810581e-002 7.86486268e-003 0.
      3.93243134e-003 3.34256664e-002 4.32567447e-002 1.76959410e-002
      6.29189014e-002 2.04486430e-001 1.14040509e-001 3.53918821e-002
      8.25810581e-002 1.04209431e-001 1.76959410e-002 1.00276999e-001
      1.96621567e-003 0. 0. 0. 0. 0. 2.16283724e-002 2.69371569e-001
      2.16283724e-002 0. 0. 9.83107835e-003 3.93243134e-003
      1.96621567e-003 1.90722927e-001 1.08141862e-001 4.71891761e-002
      1.29770234e-001 1.06175646e-001 2.28081018e-001 1.57297254e-002
      3.93243134e-003 5.50540388e-002 0. 2.16283724e-002 2.69371569e-001
      1.96621567e-001 4.32567447e-002 5.89864701e-003 3.93243134e-003 0.
      9.63445678e-002 2.16283724e-002 0. 0. 0. 0. 0. 1.96621567e-003
      2.69371569e-001 2.02520221e-001 0. 3.93243134e-003 1.17972940e-002
      0. 0. 1.96621567e-002 1.06175646e-001 6.09526858e-002
      3.93243134e-003 2.75270194e-002 2.69371569e-001 1.08141862e-001
      5.89864701e-003 5.89864701e-003 0. 0. 1.37635097e-002
      2.75270194e-002 8.84797052e-002 1.02243215e-001 9.83107835e-002
      3.93243134e-003 3.93243134e-002 5.89864701e-003 0. 0. 0. 0.
      3.93243134e-003 7.86486268e-003 2.69371569e-001 8.25810581e-002 0.
      0. 0. 0. 0. 5.89864701e-003 1.82858065e-001 3.93243134e-002 0.
      3.93243134e-003 1.41567528e-001 7.47161955e-002 1.96621567e-003
      1.96621567e-003 0. 0. 5.89864701e-003 4.12905291e-002
      1.04209431e-001 4.71891761e-002 2.35945880e-002 0.</_>
    <_>
      7.08008781e-002 1.96669102e-002 0. 0. 0. 0. 0. 4.32672016e-002
      2.69436657e-001 3.93338203e-002 1.96669088e-003 3.93338175e-003
      1.96669088e-003 1.96669088e-003 0. 8.06343332e-002 1.16034769e-001
      1.96669102e-002 5.90007287e-003 8.06343332e-002 1.75035492e-001
      6.49008006e-002 5.90007287e-003 2.16336008e-002 4.91672754e-002
      2.95003653e-002 1.77002195e-002 1.96669102e-002 5.11339642e-002
      4.52338941e-002 1.00301243e-001 1.14068076e-001 1.08168006e-001
      4.52338941e-002 0. 0. 0. 0. 0. 3.93338175e-003 2.69436657e-001
      6.09674193e-002 1.96669088e-003 5.90007287e-003 1.57335270e-002
      1.18001457e-002 5.90007287e-003 1.43568441e-001 8.65344033e-002
      1.77002195e-002 1.77002195e-002 9.24344733e-002 2.69436657e-001
      5.31006567e-002 1.18001457e-002 5.31006567e-002 3.14670540e-002
      8.26010182e-002 2.12402627e-001 9.04677883e-002 6.49008006e-002 0.
      0. 1.18001457e-002 1.12101384e-001 1.37668373e-002 0. 0. 0. 0. 0.
      1.96669088e-003 2.69436657e-001 1.63235351e-001 1.37668373e-002
      2.55669821e-002 1.77002195e-002 3.93338175e-003 1.96669088e-003
      4.52338941e-002 6.09674193e-002 4.52338941e-002 1.96669102e-002
      1.86835647e-001 2.69436657e-001 7.27675632e-002 7.86676351e-003
      1.18001457e-002 0. 0. 3.54004391e-002 8.85010958e-002
      1.12101384e-001 3.93338203e-002 1.96669088e-003 0. 8.26010182e-002
      0. 0. 0. 0. 0. 0. 3.73671278e-002 2.69436657e-001 1.96669102e-002
      0. 0. 1.96669088e-003 5.90007287e-003 1.18001457e-002
      1.57335281e-001 7.27675632e-002 2.55669821e-002 7.86676351e-003
      9.83345509e-003 5.90007305e-002 2.65503287e-001 1.57335281e-001
      5.70340380e-002 0. 0. 1.96669088e-003 9.83345509e-003
      6.88341856e-002 2.69436657e-001 6.09674193e-002 0.</_>
    <_>
      5.69785275e-002 5.10841981e-002 7.85910711e-003 0. 0. 0. 0. 0.
      2.45597109e-001 8.84149596e-002 5.89433033e-003 0. 0. 0. 0.
      2.55420990e-002 2.02372015e-001 2.45597109e-001 2.06301570e-001
      2.16125455e-002 5.89433033e-003 0. 1.57182142e-002 3.53659838e-002
      7.85910711e-003 2.45597109e-001 2.45597109e-001 9.82388388e-003
      1.17886607e-002 8.64501819e-002 5.10841981e-002 9.82388388e-003
      1.31640047e-001 9.82388388e-003 0. 0. 0. 0. 0. 1.37534384e-002
      2.45597109e-001 4.51898687e-002 9.82388388e-003 7.85910711e-003
      2.16125455e-002 1.17886607e-002 3.92955355e-003 1.23780943e-001
      5.30489758e-002 7.66262934e-002 1.59146920e-001 1.08062729e-001
      2.45597109e-001 3.53659838e-002 3.92955355e-003 2.55420990e-002
      6.28728569e-002 2.45597109e-001 2.45597109e-001 1.96477678e-002
      2.94716526e-002 0. 0. 1.57182142e-002 7.66262934e-002
      4.71546426e-002 0. 0. 0. 0. 0. 0. 1.98442459e-001 2.45597109e-001
      1.47358268e-001 2.94716526e-002 7.85910711e-003 1.96477678e-003 0.
      1.17886607e-002 1.96477678e-002 6.09080829e-002 1.90583348e-001
      2.41667554e-001 1.39499158e-001 5.89433033e-003 0. 3.92955355e-003
      1.11992277e-001 1.25745714e-001 5.69785275e-002 3.14364284e-002
      2.16125455e-002 0. 0. 2.35773213e-002 1.96477678e-003
      1.57182142e-002 0. 0. 0. 0. 0. 0. 0. 6.48376346e-002
      7.26967454e-002 1.96477678e-003 0. 0. 0. 0. 0. 1.96477678e-002
      1.10027507e-001 3.34012061e-002 0. 0. 0. 0. 5.89433033e-003
      9.62740630e-002 5.50137535e-002 3.92955355e-003 0. 0. 0. 0.</_>
    <_>
      0. 6.09020889e-002 1.90564603e-001 1.96458353e-003 0. 0. 0. 0.
      3.73270847e-002 2.39679188e-001 2.04316676e-001 1.96458353e-003 0.
      0. 0. 0. 2.53431261e-001 2.41643772e-001 5.10791689e-002
      3.92916705e-003 3.92916705e-003 7.85833411e-003 3.53625007e-002
      5.10791689e-002 1.29662514e-001 1.49308339e-001 7.07250014e-002 0.
      0. 2.94687524e-002 2.53431261e-001 1.37520850e-001 0.
      1.37520842e-002 1.76812503e-002 0. 0. 0. 0. 0. 1.82706267e-001
      7.07250014e-002 5.89375058e-003 0. 0. 0. 0. 3.92916705e-003
      2.53431261e-001 1.19839594e-001 3.53625007e-002 1.17875012e-002
      1.57166682e-002 7.85833411e-003 1.96458353e-003 3.53625007e-002
      5.69729209e-002 2.53431261e-001 2.53431261e-001 5.89375049e-002
      5.89375049e-002 1.37520842e-002 1.96458353e-003 5.89375058e-003
      1.96458353e-003 3.92916705e-003 0. 0. 1.96458353e-003 0. 0. 0.
      2.06281260e-001 4.12562527e-002 0. 0. 0. 0. 0. 5.89375058e-003
      2.53431261e-001 1.70918763e-001 6.28666729e-002 3.33979204e-002
      4.71500047e-002 1.76812503e-002 3.92916705e-003 5.89375049e-002
      2.94687524e-002 3.92916687e-002 8.44770893e-002 1.33591682e-001
      2.47537524e-001 3.73270847e-002 1.96458353e-003 9.82291717e-003 0.
      0. 0. 0. 3.92916705e-003 0. 0. 0. 3.14333364e-002 5.69729209e-002
      1.96458353e-003 0. 0. 0. 0. 0. 3.92916687e-002 1.94493756e-001
      1.59131259e-001 2.55395845e-002 1.96458353e-003 0. 0. 0.
      3.92916705e-003 3.14333364e-002 1.37520850e-001 1.17875010e-001
      1.76812503e-002 0. 0. 0.</_>
    <_>
      1.96620426e-003 1.96620426e-003 0. 9.83102154e-003 1.96620426e-003
      0. 0. 0. 7.86481723e-002 3.93240862e-002 0. 0. 0. 0. 0.
      3.34254727e-002 2.24147290e-001 7.86481723e-002 0. 0.
      1.96620426e-003 1.96620426e-003 1.57296341e-002 2.22181082e-001
      4.91551086e-002 1.17972260e-002 0. 1.96620426e-003 1.47465318e-001
      1.51397735e-001 3.53916772e-002 6.09523356e-002 7.86481705e-003 0.
      1.96620426e-003 5.89861302e-003 0. 0. 0. 0. 2.59538978e-001
      5.89861302e-003 0. 0. 0. 0. 0. 6.68509454e-002 2.59538978e-001
      6.68509454e-002 9.83102154e-003 1.96620426e-003 1.96620426e-003
      9.83102154e-003 6.09523356e-002 2.59538978e-001 2.55606566e-002
      1.76958386e-002 1.57296341e-002 1.57296341e-002 2.20214888e-001
      2.59538978e-001 1.08141236e-001 1.12073645e-001 1.17972260e-002 0.
      0. 0. 0. 0. 0. 9.83102154e-003 2.59538978e-001 3.73578817e-002 0.
      0. 0. 0. 0. 3.14592682e-002 2.59538978e-001 2.59538978e-001
      1.00276418e-001 1.96620426e-003 0. 0. 1.96620426e-003
      3.73578817e-002 8.06143805e-002 1.65161163e-001 1.31735682e-001
      4.32564951e-002 1.82857007e-001 6.29185364e-002 5.89861302e-003
      1.96620431e-002 1.57296341e-002 9.83102154e-003 0. 0. 0. 0. 0.
      1.96620426e-003 1.63194954e-001 3.73578817e-002 0. 0. 0. 0. 0.
      5.30875176e-002 1.90721825e-001 1.16006054e-001 2.16282476e-002 0.
      0. 0. 9.83102154e-003 8.06143805e-002 2.59538978e-001
      6.09523356e-002 7.86481705e-003 1.96620426e-003 5.11213131e-002
      4.71889041e-002 9.83102154e-003 7.07833543e-002</_>
    <_>
      4.70923297e-002 0. 0. 0. 0. 0. 0. 2.15839855e-002 1.66785344e-001
      0. 0. 0. 0. 0. 0. 2.68818706e-001 3.33570689e-002 0. 0.
      9.81090218e-003 0. 0. 0. 1.45201355e-001 0. 0. 0. 1.96218048e-003
      0. 0. 0. 0. 1.43239170e-001 5.88654121e-003 0. 0. 0. 0. 0.
      3.92436087e-002 2.68818706e-001 5.88654131e-002 3.92436096e-003
      1.37352627e-002 1.56974439e-002 1.96218048e-003 3.92436096e-003
      2.68818706e-001 7.06384927e-002 1.37352627e-002 1.76596232e-002
      2.68818706e-001 1.31466091e-001 3.92436096e-003 9.81090218e-003
      1.68747514e-001 5.88654121e-003 1.96218048e-003 1.37352627e-002
      1.39314815e-001 5.88654121e-003 0. 0. 5.88654121e-003
      1.15768649e-001 4.70923297e-002 0. 0. 0. 0. 0. 1.96218048e-003
      2.68818706e-001 2.68818706e-001 4.31679711e-002 4.90545109e-002
      1.76596232e-002 0. 0. 2.35461649e-002 5.29788733e-002
      1.00071199e-001 6.08275943e-002 2.68818706e-001 2.68818706e-001
      7.84872193e-003 0. 5.88654121e-003 1.19693004e-001 7.65250400e-002
      1.56974439e-002 8.24115798e-002 2.94327065e-002 0. 0.
      3.53192464e-002 5.88654131e-002 5.88654121e-003 0. 0. 0. 0. 0.
      1.37352627e-002 2.68818706e-001 5.88654131e-002 1.96218048e-003
      1.96218048e-003 9.81090218e-003 5.88654121e-003 1.96218048e-003
      6.86763152e-002 7.65250400e-002 2.35461649e-002 5.88654121e-003
      2.55083460e-002 2.68818706e-001 7.26006776e-002 3.92436096e-003
      2.35461649e-002 4.70923297e-002 1.68747514e-001 5.88654121e-003
      5.88654121e-003 7.06384927e-002 7.84872193e-003 0. 0.</_>
    <_>
      1.29700303e-001 7.46759325e-002 0. 0. 0. 0. 0. 3.93031258e-003
      2.63330936e-001 2.63330936e-001 4.71637473e-002 6.87804669e-002
      4.32334356e-002 3.93031258e-003 0. 1.57212503e-002 3.14425007e-002
      5.10940626e-002 3.53728123e-002 2.41714209e-001 2.63330936e-001
      1.76864062e-002 0. 1.96515629e-003 1.23804837e-001 1.29700303e-001
      7.86062516e-003 2.16167178e-002 1.17909368e-002 0. 0.
      2.75121871e-002 1.53282180e-001 5.89546841e-003 0. 0. 0. 0. 0.
      3.14425007e-002 2.63330936e-001 4.71637473e-002 1.96515629e-003
      3.93031258e-003 5.30592166e-002 2.35818736e-002 3.93031258e-003
      1.08083591e-001 4.91289049e-002 2.35818736e-002 3.93031258e-003
      1.57212503e-002 2.63330936e-001 1.08083591e-001 3.93031258e-003
      1.96515620e-002 6.09198436e-002 2.45644525e-001 7.86062516e-003
      3.93031258e-003 6.68153092e-002 7.86062516e-003 0. 0.
      1.49351865e-001 1.96515629e-003 0. 0. 0. 0. 1.96515629e-003
      1.27735153e-001 2.63330936e-001 7.27107823e-002 5.89546841e-003
      1.96515620e-002 3.53728123e-002 3.93031258e-003 2.55470313e-002
      1.59177646e-001 3.53728123e-002 2.75121871e-002 7.86062516e-003
      5.89546859e-002 2.63330936e-001 2.94773430e-002 0. 3.93031258e-003
      1.76864062e-002 7.86062479e-002 9.82578099e-003 1.57212503e-002
      1.19874530e-001 1.17909368e-002 0. 0. 1.57212496e-001
      1.00222968e-001 1.57212503e-002 0. 0. 0. 1.96515629e-003
      6.09198436e-002 6.48501515e-002 8.84320289e-002 1.74898908e-001
      5.10940626e-002 9.82578099e-003 3.93031258e-003 2.55470313e-002
      7.86062479e-002 1.96515629e-003 2.35818736e-002 7.46759325e-002
      4.51985933e-002 2.00445935e-001 5.89546859e-002 0. 0. 0.
      5.89546841e-003 1.96515629e-003 1.96515629e-003 8.45017135e-002
      1.04153275e-001 0. 0.</_>
    <_>
      2.94972844e-002 0. 0. 3.93297104e-003 0. 0. 0. 2.94972844e-002
      5.50615974e-002 0. 0. 0. 1.96648552e-003 1.17989136e-002
      3.53967398e-002 2.12380454e-001 0. 0. 0. 7.86594208e-003
      1.29788056e-001 7.27599710e-002 4.71956544e-002 5.70280850e-002 0.
      0. 0. 1.96648557e-002 7.86594227e-002 5.89945680e-003 0. 0.
      1.21922113e-001 7.86594208e-003 0. 0. 0. 0. 0. 1.96648557e-002
      2.75307983e-001 2.16313414e-002 0. 0. 2.35978272e-002
      6.09610565e-002 5.11286259e-002 2.55643129e-001 3.14637683e-002
      3.93297104e-003 0. 1.96648552e-003 2.75307983e-001 2.75307983e-001
      4.91621420e-002 5.50615974e-002 0. 0. 0. 0. 9.63577926e-002
      9.43913087e-002 9.83242784e-003 0. 9.04583409e-002 3.93297104e-003
      0. 0. 0. 0. 3.14637683e-002 1.00290768e-001 2.75307983e-001
      1.14056170e-001 0. 3.93297104e-003 4.32626829e-002 1.37653993e-002
      1.96648557e-002 1.16022654e-001 1.02257252e-001 3.14637683e-002 0.
      7.86594208e-003 2.75307983e-001 1.67151272e-001 5.89945680e-003
      2.16313414e-002 2.16313414e-002 0. 0. 0. 1.08156711e-001
      9.24248248e-002 1.25855073e-001 1.08156711e-001 8.45588818e-002
      8.45588818e-002 7.86594208e-003 0. 0. 0. 2.75307987e-002
      7.66929388e-002 2.75307983e-001 3.73632275e-002 1.96648552e-003
      1.96648557e-002 2.75307987e-002 1.96648552e-003 1.76983699e-002
      1.76983714e-001 6.88269958e-002 9.83242784e-003 3.93297104e-003
      1.71084255e-001 2.75307983e-001 4.52291705e-002 1.96648552e-003
      3.14637683e-002 1.25855073e-001 9.83242840e-002 4.32626829e-002
      4.91621420e-002 6.48940280e-002 2.35978272e-002 2.55643129e-002
      8.45588818e-002</_>
    <_>
      5.50030284e-002 1.00184090e-001 1.43400759e-001 1.19828030e-001
      4.91098464e-002 1.76795460e-002 9.82197002e-003 2.35727280e-002
      2.61264384e-001 9.82197002e-003 1.37507571e-002 5.89318164e-002
      4.51810621e-002 1.76795460e-002 9.82197002e-003 2.08225757e-001
      8.25045481e-002 1.96439400e-003 7.85757601e-003 2.27869689e-001
      1.33578792e-001 1.96439400e-003 3.92878801e-003 1.90546215e-001 0.
      0. 1.96439400e-002 1.33578792e-001 1.96439385e-001 5.89318164e-002
      0. 0. 1.17863633e-001 8.05401504e-002 6.48249984e-002
      1.17863640e-002 0. 0. 0. 7.85757601e-003 2.61264384e-001
      2.75015142e-002 1.17863640e-002 2.55371202e-002 5.30386344e-002
      1.96439400e-003 0. 1.35543182e-001 8.25045481e-002 5.89318201e-003
      2.94659082e-002 2.61264384e-001 2.61264384e-001 3.92878801e-003 0.
      2.94659082e-002 0. 1.96439400e-003 1.21792421e-001 1.43400759e-001
      6.87537864e-002 1.17863640e-002 0. 0. 1.68937877e-001
      1.76795460e-002 0. 0. 0. 0. 0. 3.92878801e-002 2.61264384e-001
      1.45365149e-001 7.46469721e-002 1.08041666e-001 2.94659082e-002 0.
      0. 2.94659082e-002 1.96439400e-002 2.55371202e-002 4.71454561e-002
      2.61264384e-001 2.61264384e-001 0. 0. 1.96439400e-003 0. 0.
      9.82197002e-003 6.28606081e-002 6.08962104e-002 0. 0. 0.
      6.67893961e-002 9.82197002e-003 1.17863640e-002 1.96439400e-003 0.
      0. 0. 5.50030284e-002 5.30386344e-002 3.92878801e-002
      1.13934845e-001 1.10006057e-001 0. 0. 0. 9.82197002e-003 0.
      1.96439400e-003 3.73234861e-002 1.70902267e-001 4.12522741e-002 0.
      0. 0. 0. 0. 0. 1.17863640e-002 1.96439400e-002 0. 0. 0.</_>
    <_>
      1.29617736e-001 1.06050879e-001 3.33863869e-002 0. 0. 0. 0.
      1.17834313e-002 8.44479203e-002 2.61199385e-001 1.04086973e-001 0.
      3.92781058e-003 1.96390529e-003 0. 5.89171564e-003 5.49893454e-002
      1.39437273e-001 3.92781058e-003 1.96390529e-003 1.23726025e-001
      1.90498799e-001 1.17834313e-002 1.96390529e-003 0. 0. 0. 0.
      4.32059132e-002 2.21921280e-001 1.04086973e-001 1.96390525e-002
      3.33863869e-002 7.85562098e-002 3.14224847e-002 0. 0. 0. 0.
      9.81952623e-003 1.78715378e-001 1.70859754e-001 6.67727739e-002 0.
      0. 0. 0. 4.51698191e-002 2.61199385e-001 1.29617736e-001 0. 0.
      7.85562117e-003 6.67727739e-002 2.55307667e-002 3.73141989e-002
      2.74946727e-002 0. 0. 1.37473363e-002 1.94426611e-001
      2.25849092e-001 5.69532514e-002 1.17834313e-002 7.26644918e-002
      2.16029566e-002 0. 0. 0. 0. 0. 1.96390525e-002 2.08173946e-001
      4.90976311e-002 0. 0. 0. 0. 1.96390529e-003 1.29617736e-001
      2.61199385e-001 4.90976311e-002 0. 0. 1.76751465e-002
      9.81952623e-003 1.96390529e-003 7.65923038e-002 7.65923038e-002
      5.89171564e-003 0. 1.76751465e-002 2.61199385e-001 8.44479203e-002
      1.96390529e-003 9.81952623e-003 4.12420072e-002 2.94585768e-002 0.
      0. 0. 0. 0. 0. 2.10137859e-001 7.65923038e-002 0. 0. 0. 0. 0.
      8.05201158e-002 2.61199385e-001 4.90976311e-002 0. 0.
      3.92781058e-003 3.92781058e-003 0. 2.10137859e-001 6.48088679e-002
      5.89171564e-003 0. 0. 2.41560340e-001 1.49256796e-001
      3.92781058e-003 3.33863869e-002</_>
    <_>
      2.75230296e-002 8.65009502e-002 5.50460592e-002 0. 0. 0. 0.
      9.82965343e-003 5.50460592e-002 8.84668827e-002 2.16252375e-002
      3.93186137e-003 2.35911682e-002 3.14548910e-002 3.93186137e-002
      8.65009502e-002 0. 0. 0. 0. 6.48757145e-002 2.08388656e-001
      3.93186137e-002 1.17955841e-002 1.37615148e-002 2.75230296e-002 0.
      0. 1.96593069e-002 4.52164076e-002 0. 0. 1.74967840e-001
      1.37615148e-002 0. 0. 0. 0. 0. 5.30801304e-002 2.55571008e-001
      5.11141978e-002 7.86372274e-003 1.37615148e-002 2.16252375e-002
      6.88075721e-002 1.51376665e-001 2.55571008e-001 1.17955841e-002
      5.89779206e-003 7.86372274e-003 5.30801304e-002 2.55571008e-001
      2.55571008e-001 1.39581084e-001 5.70119917e-002 1.96593069e-003
      3.93186137e-003 0. 3.93186137e-003 1.71035975e-001 5.70119917e-002
      0. 0. 1.51376665e-001 8.25690925e-002 0. 0. 0. 0. 0.
      3.93186137e-003 2.55571008e-001 2.55571008e-001 2.20184237e-001
      7.27394372e-002 1.96593069e-002 7.86372274e-003 5.89779206e-003
      4.32504751e-002 1.57274455e-002 5.30801304e-002 1.88729346e-001
      2.55571008e-001 2.55571008e-001 4.71823364e-002 5.89779206e-003
      7.86372274e-003 0. 0. 0. 1.37615148e-002 2.04456791e-001
      4.12845463e-002 0. 0. 1.17955841e-002 3.73526849e-002 0. 0. 0. 0.
      0. 0. 5.30801304e-002 1.51376665e-001 9.04328153e-002
      3.93186137e-003 0. 0. 0. 7.86372274e-003 1.02228396e-001
      3.73526849e-002 6.88075721e-002 2.35911682e-002 2.16252375e-002
      4.52164076e-002 2.94889603e-002 9.04328153e-002 0. 0. 0. 0.
      1.10092118e-001 1.45478874e-001 1.96593069e-002 9.82965343e-003</_>
    <_>
      1.12086646e-001 8.25901628e-002 1.96643244e-003 0. 0. 0. 0.
      1.96643248e-002 2.28106156e-001 2.37938315e-001 0. 0.
      5.89929707e-003 1.76978912e-002 0. 5.89929707e-003 5.30936755e-002
      4.12950814e-002 0. 0. 9.63551849e-002 2.47770488e-001
      1.17985941e-002 5.89929707e-003 0. 0. 0. 0. 3.34293507e-002
      2.47770488e-001 9.63551849e-002 0. 8.45565945e-002 1.17985941e-001
      7.86572974e-003 0. 0. 0. 0. 1.96643244e-003 2.47770488e-001
      1.47482425e-001 1.17985941e-002 0. 0. 0. 0. 9.63551849e-002
      1.45515993e-001 7.07915649e-002 9.63551849e-002 7.86572974e-003
      3.93286487e-003 8.65230262e-002 4.71943766e-002 7.07915649e-002
      1.57314595e-002 6.09594062e-002 2.35971883e-002 7.86572974e-003
      3.14629190e-002 2.47770488e-001 2.47770488e-001 1.76978912e-002
      6.29258379e-002 7.27579966e-002 0. 0. 0. 0. 0. 0. 1.78945348e-001
      2.47770488e-001 1.35683835e-001 1.96643244e-003 0. 0. 0.
      1.17985941e-002 2.75300536e-002 2.08441839e-001 2.47770488e-001
      3.73622142e-002 0. 0. 3.93286487e-003 7.86572974e-003
      3.53957824e-002 2.47770488e-001 1.51415288e-001 4.71943766e-002
      4.91608083e-002 1.57314595e-002 9.83216241e-003 5.89929707e-003
      7.86572974e-003 1.57314595e-002 0. 0. 0. 0. 0. 0. 7.86572993e-002
      7.07915649e-002 2.94964854e-002 0. 0. 0. 3.93286487e-003
      5.89929707e-002 4.52279449e-002 3.93286496e-002 6.88251331e-002
      1.96643244e-003 0. 1.76978912e-002 1.71079621e-001 1.25851676e-001
      1.47482425e-001 1.14053078e-001 1.37650268e-002 1.96643244e-003
      7.86572974e-003 2.94964854e-002 7.66908601e-002 3.34293507e-002</_>
    <_>
      0. 0. 0. 0. 0. 0. 0. 1.96502339e-002 3.93004669e-003 0. 0. 0. 0.
      0. 4.32305150e-002 9.82511714e-002 3.73354442e-002 0. 0. 0. 0. 0.
      7.07408413e-002 1.57201871e-001 5.89507027e-003 0. 0. 0. 0.
      1.96502334e-003 1.08076289e-001 2.12222531e-001 3.93004678e-002 0.
      0. 0. 0. 5.89507027e-003 4.32305150e-002 7.46708885e-002
      1.61131918e-001 9.82511695e-003 0. 0. 0. 1.96502334e-003
      1.39516667e-001 2.43662894e-001 2.55453046e-002 1.96502334e-003 0.
      0. 0. 2.35802811e-002 2.43662894e-001 2.27942720e-001
      1.96502334e-003 0. 3.93004669e-003 1.04146242e-001 5.89507027e-003
      1.96502334e-003 8.05659592e-002 2.43662894e-001 4.91255857e-002
      7.86009338e-003 0. 0. 6.87758178e-002 1.55236855e-001
      1.17901407e-001 3.34053971e-002 2.43662894e-001 1.33621588e-001 0.
      0. 7.86009338e-003 1.17901405e-002 1.57201868e-002 1.08076289e-001
      1.55236855e-001 4.71605621e-002 0. 3.93004678e-002 7.46708885e-002
      3.14403735e-002 1.08076289e-001 8.05659592e-002 0. 0.
      1.96502334e-003 2.43662894e-001 1.33621588e-001 5.89507027e-003
      1.96502339e-002 1.37551641e-002 7.86009338e-003 9.82511695e-003
      1.37551641e-002 3.14403735e-002 1.67026982e-001 7.86009356e-002
      6.28807470e-002 4.91255857e-002 2.27942720e-001 3.14403735e-002
      1.96502339e-002 1.96502334e-003 1.17901405e-002 1.17901405e-002
      4.12654914e-002 2.43662894e-001 1.13971360e-001 2.55453046e-002
      6.28807470e-002 1.12006336e-001 1.84712201e-001 2.75103282e-002
      1.37551641e-002 1.15936384e-001 0. 0. 1.96502334e-003
      1.90607265e-001 2.43662894e-001 5.89507027e-003 0. 0.</_>
    <_>
      6.66993707e-002 2.53065258e-001 2.53065258e-001 1.02010801e-001
      1.96174625e-002 0. 0. 1.96174625e-003 2.35409550e-002
      2.15792079e-002 1.13781281e-001 1.76557153e-001 1.58901438e-001
      5.68906404e-002 1.17704775e-002 1.37322238e-002 0. 0. 0. 0.
      1.11819535e-001 1.76557153e-001 9.80873127e-003 1.96174625e-003
      3.13879400e-002 4.51201610e-002 0. 0. 1.17704775e-002
      1.76557153e-002 0. 0. 9.41638201e-002 9.61255655e-002
      7.45463520e-002 1.96174625e-003 0. 0. 0. 1.96174625e-003
      2.53065258e-001 4.31584157e-002 2.74644475e-002 5.88523876e-003
      9.80873127e-003 6.08141311e-002 5.88523857e-002 1.58901438e-001
      2.74644475e-002 3.92349251e-003 0. 1.96174625e-002 2.53065258e-001
      2.53065258e-001 6.86611161e-002 4.51201610e-002 0. 7.84698501e-003
      1.96174625e-003 3.92349251e-003 1.09857790e-001 6.08141311e-002 0.
      0. 1.54977947e-001 1.56939700e-002 0. 0. 0. 0. 0. 7.84698501e-003
      2.53065258e-001 1.33398741e-001 1.56939700e-002 3.72731760e-002
      2.15792079e-002 5.88523876e-003 3.92349251e-003 3.53114307e-002
      4.90436554e-002 3.92349251e-002 1.96174625e-002 2.51103520e-001
      2.53065258e-001 4.51201610e-002 3.92349251e-003 9.80873127e-003 0.
      0. 0. 4.31584157e-002 1.53016210e-001 5.88523876e-003 0. 0.
      7.84698501e-002 0. 0. 0. 0. 0. 0. 1.13781281e-001 2.47180015e-001
      1.56939700e-002 1.96174625e-003 7.84698501e-003 3.53114307e-002
      2.15792079e-002 7.84698501e-003 1.86365888e-001 1.76557153e-002
      3.92349251e-003 1.96174625e-003 5.68906404e-002 2.53065258e-001
      7.45463520e-002 3.92349251e-003 1.37322238e-002 0. 0. 0.
      7.84698501e-003 4.31584157e-002 1.96174625e-003 0. 0.</_>
    <_>
      3.33735198e-002 3.92629625e-003 0. 0. 0. 0. 0. 3.92629625e-003
      2.55209267e-001 9.81574059e-002 5.88944461e-003 1.17788892e-002
      1.17788892e-002 1.96314813e-003 0. 3.72998156e-002 4.31892611e-002
      2.94472221e-002 7.85259251e-003 1.78646475e-001 2.53246099e-001
      1.76683329e-002 1.96314813e-003 7.85259251e-003 0. 0. 0.
      1.11899443e-001 9.61942598e-002 0. 0. 0. 1.27604634e-001
      3.92629625e-003 0. 0. 0. 0. 0. 2.94472221e-002 2.55209267e-001
      3.72998156e-002 1.96314813e-003 3.92629625e-003 2.94472221e-002
      3.14103700e-002 1.76683329e-002 2.35577777e-001 4.12261114e-002
      7.85259251e-003 1.96314813e-003 2.74840742e-002 2.55209267e-001
      1.66867599e-001 1.96314808e-002 5.10418527e-002 0. 0. 0.
      5.88944461e-003 1.82572782e-001 2.55209263e-002 0. 0.
      9.61942598e-002 4.51524071e-002 0. 0. 0. 7.85259251e-003
      1.96314813e-003 3.92629625e-003 2.55209267e-001 2.55209267e-001
      5.88944443e-002 2.94472221e-002 1.57051850e-002 3.92629625e-003
      1.96314813e-003 2.55209263e-002 1.96314808e-002 9.22679603e-002
      7.45996311e-002 1.62941292e-001 2.55209267e-001 4.51524071e-002
      1.76683329e-002 7.85259251e-003 0. 0. 0. 3.92629625e-003
      1.29567772e-001 9.22679603e-002 8.24522227e-002 1.96314813e-003
      7.85259251e-003 1.37420371e-002 0. 0. 2.55209263e-002
      6.47838861e-002 3.92629625e-003 0. 8.44153687e-002 1.92388520e-001
      1.17788892e-002 1.96314813e-003 0. 0. 0. 0. 1.55088708e-001
      9.22679603e-002 1.96314808e-002 1.76683329e-002 2.35577784e-002
      1.57051850e-002 6.47838861e-002 1.29567772e-001 3.53366658e-002
      1.96314813e-003 0. 0. 4.71155569e-002 2.13983148e-001
      2.55209267e-001 1.45272970e-001</_>
    <_>
      1.96292112e-003 3.53325829e-002 2.59105593e-001 2.10032567e-001 0.
      0. 0. 0. 1.17775276e-002 1.86477512e-001 1.96292117e-001
      7.26280883e-002 0. 1.96292112e-003 1.76662914e-002 9.81460605e-003
      0. 2.59105593e-001 2.59105593e-001 5.88876382e-002 1.96292112e-003
      9.81460605e-003 1.76662914e-002 1.96292112e-003 0. 6.87022433e-002
      2.59105593e-001 2.59105593e-001 2.15921327e-002 0. 0. 0.
      5.49617931e-002 5.69247156e-002 3.72955017e-002 5.88876382e-003 0.
      0. 0. 1.96292112e-003 2.59105593e-001 5.29988743e-002
      5.88876382e-003 3.92584223e-003 5.88876382e-003 2.55179759e-002
      7.65539259e-002 1.55070782e-001 1.76662914e-002 5.49617931e-002
      6.87022433e-002 5.88876382e-002 1.76662907e-001 1.70774147e-001
      1.00108981e-001 4.71101105e-002 0. 9.81460605e-003 1.25626951e-001
      1.33478642e-001 5.88876382e-002 5.88876382e-003 0. 0.
      5.69247156e-002 3.72955017e-002 1.96292112e-003 0. 0. 0. 0. 0.
      2.59105593e-001 2.49290988e-001 1.31515726e-001 4.31842655e-002
      7.85168447e-003 3.92584223e-003 3.92584223e-003 3.53325829e-002
      1.96292121e-002 4.12213467e-002 1.43293247e-001 2.59105593e-001
      1.66848302e-001 2.74808966e-002 7.85168447e-003 9.81460605e-003 0.
      0. 1.96292112e-003 8.24426934e-002 4.90730293e-002 0. 0. 0.
      1.96292112e-003 1.57033689e-002 1.96292112e-003 0. 0. 0. 0. 0.
      1.96292112e-003 6.67393208e-002 7.06651658e-002 5.88876382e-003 0.
      0. 0. 0. 0. 7.85168447e-003 7.65539259e-002 5.49617931e-002 0. 0.
      0. 0. 0. 0. 3.92584223e-003 1.76662914e-002 0. 0. 0. 0.</_>
    <_>
      2.36075521e-002 0. 0. 0. 0. 0. 8.06591362e-002 7.08226562e-002
      2.22304448e-001 4.52478081e-002 0. 0. 0. 1.96729600e-003
      4.52478081e-002 4.91824001e-002 2.12467968e-001 1.65252864e-001
      1.96729600e-002 3.34440321e-002 6.68880641e-002 9.83648002e-003
      1.96729600e-003 7.86918402e-003 0. 5.90188801e-003 5.90188801e-003
      4.13132161e-002 2.22304448e-001 6.88553602e-002 1.96729600e-003 0.
      4.72151041e-002 1.96729600e-003 0. 3.93459201e-003 2.16402560e-002
      4.52478081e-002 2.22304448e-001 2.10500672e-001 6.49207681e-002
      2.16402560e-002 0. 1.96729600e-002 1.10168576e-001 1.02299392e-001
      1.43612608e-001 3.54113281e-002 2.22304448e-001 9.44302082e-002
      3.93459201e-003 5.90188801e-003 3.14767361e-002 2.16402560e-002
      7.86918402e-003 6.09861761e-002 1.77056640e-002 3.93459201e-003
      1.96729600e-003 7.86918402e-003 2.22304448e-001 1.75089344e-001
      7.86918402e-003 1.57383680e-002 1.20005056e-001 1.14103168e-001
      1.23939648e-001 1.27874240e-001 4.52478081e-002 1.57383680e-002
      2.16402560e-002 5.31169921e-002 4.52478081e-002 3.93459201e-002
      7.08226562e-002 2.22304448e-001 1.63285568e-001 2.16402560e-002
      5.90188801e-003 3.93459201e-003 2.22304448e-001 2.22304448e-001
      3.14767361e-002 7.86918402e-003 1.37710720e-002 7.86918402e-003
      1.96729600e-003 4.91824001e-002 1.96729600e-002 6.88553602e-002
      1.18037760e-002 1.18037760e-002 2.22304448e-001 1.06233984e-001
      3.93459201e-003 9.83648002e-003 3.93459201e-003 7.08226562e-002
      2.20337152e-001 6.49207681e-002 0. 0. 0. 0. 9.83648002e-003
      3.54113281e-002 1.47547200e-001 1.04266688e-001 0. 0. 0.
      7.86918402e-003 1.02299392e-001 2.22304448e-001 3.93459201e-002
      1.96729600e-003 0. 0. 1.96729600e-003 5.90188801e-002
      6.88553602e-002 1.06233984e-001 7.86918402e-003 5.90188801e-003
      1.02299392e-001 4.72151041e-002 5.90188801e-003 2.55748481e-002</_>
    <_>
      4.72379625e-002 8.26664343e-002 8.46346840e-002 2.16507334e-002 0.
      0. 1.96824851e-003 2.16507334e-002 9.64441746e-002 2.75554787e-002
      2.95237266e-002 4.52697128e-002 0. 3.93649703e-003 1.08253665e-001
      1.12190165e-001 2.73586541e-001 1.73205867e-001 7.87299406e-003
      7.87299406e-003 3.93649703e-003 1.96824851e-003 3.14919762e-002
      8.06981847e-002 7.47934431e-002 6.10157028e-002 1.77142359e-002
      1.10221915e-001 2.73586541e-001 3.93649703e-003 0. 3.93649703e-003
      1.20063156e-001 5.11744581e-002 1.96824851e-003 0. 0. 0. 0.
      2.55872291e-002 1.45650387e-001 1.65332869e-001 1.08253665e-001
      1.96824851e-003 0. 3.93649703e-003 4.13332172e-002 6.88886940e-002
      2.73586541e-001 1.08253665e-001 3.34602222e-002 1.37777394e-002
      9.84124187e-003 1.96824851e-003 1.37777394e-002 6.69204444e-002
      7.87299350e-002 1.96824837e-002 5.90474531e-003 1.45650387e-001
      2.73586541e-001 0. 0. 5.90474531e-003 8.85711834e-002
      3.14919762e-002 3.93649703e-003 0. 0. 0. 7.87299406e-003
      7.87299350e-002 1.29904404e-001 6.69204444e-002 3.93649675e-002 0.
      0. 0. 6.69204444e-002 1.16126657e-001 2.73586541e-001
      5.11744581e-002 1.18094906e-002 1.77142359e-002 1.37777394e-002
      1.96824851e-003 5.90474531e-003 1.00380674e-001 3.34602222e-002
      1.37777394e-002 7.87299406e-003 1.29904404e-001 2.73586541e-001
      7.87299406e-003 0. 1.96824851e-003 3.34602222e-002 6.88886940e-002
      1.77142359e-002 0. 0. 0. 0. 1.96824851e-003 1.83047101e-001
      1.23999655e-001 6.29839525e-002 0. 0. 0. 1.96824851e-003
      5.90474531e-003 2.73586541e-001 2.75554787e-002 0. 0.
      2.95237266e-002 1.77142359e-002 7.87299406e-003 7.47934431e-002
      1.18094906e-002 0. 0. 3.34602222e-002 2.73586541e-001
      3.73967215e-002 5.90474531e-003 1.18094906e-002</_>
    <_>
      0. 0. 0. 0. 0. 0. 1.77080631e-002 2.55783126e-002 2.55783126e-002
      0. 0. 0. 0. 0. 1.37729375e-002 1.73145503e-001 5.90268783e-002 0.
      0. 0. 0. 9.83781274e-003 1.92821130e-001 2.34139949e-001
      1.96756260e-003 0. 0. 0. 1.77080631e-002 2.22334564e-001
      2.34139949e-001 4.13188152e-002 5.90268755e-003 0. 0. 0. 0. 0.
      5.70593141e-002 6.29620031e-002 1.79048195e-001 1.18053751e-002 0.
      0. 0. 0. 2.75458749e-002 1.49534762e-001 2.34139949e-001
      8.85403156e-002 1.96756260e-003 3.93512519e-003 1.96756260e-003
      5.90268755e-003 4.13188152e-002 2.00691387e-001 5.11566252e-002
      2.75458749e-002 5.90268755e-003 2.95134392e-002 1.98723823e-001
      1.86918437e-001 7.08322525e-002 3.54161263e-002 1.77080631e-002 0.
      0. 0. 0. 0. 4.13188152e-002 1.96756259e-001 4.72215004e-002
      1.96756260e-003 3.93512519e-003 3.93512519e-003 0. 0.
      1.90853566e-001 2.32172385e-001 2.34139949e-001 9.24754366e-002
      9.24754366e-002 1.77080631e-002 0. 0. 3.14810015e-002
      1.10183500e-001 3.34485620e-002 4.13188152e-002 1.63307697e-001
      1.69210374e-001 6.49295673e-002 1.18053751e-002 0. 0.
      4.91890647e-002 0. 7.87025038e-003 1.57405008e-002 0. 0.
      1.96756260e-003 1.98723823e-001 1.18053751e-002 0. 8.06700662e-002
      1.65275261e-001 0. 0. 2.75458749e-002 6.68971241e-002
      7.87025038e-003 1.37729375e-002 2.34139949e-001 1.55437440e-001 0.
      0. 3.93512519e-003 5.90268755e-003 0. 1.96756260e-003
      2.34139949e-001 1.31826699e-001 0. 0. 0. 0.</_>
    <_>
      1.17885927e-002 0. 0. 0. 0. 0. 0. 2.35771853e-002 1.96476537e-003
      0. 0. 0. 0. 0. 4.32248414e-002 6.48372620e-002 4.71543707e-002 0.
      0. 0. 0. 0. 9.03792083e-002 7.85906166e-002 2.51489967e-001
      9.82382707e-003 0. 0. 0. 0. 7.85906147e-003 1.00203037e-001
      7.46610910e-002 1.96476537e-003 0. 0. 0. 0. 0. 2.75067165e-002
      1.51286945e-001 5.89429634e-003 0. 0. 0. 0. 9.23439786e-002
      2.51489967e-001 2.16124207e-002 1.96476537e-003 0. 0. 0.
      3.14362459e-002 2.51489967e-001 1.88617483e-001 1.21815458e-001 0.
      0. 0. 3.92953074e-003 5.89429634e-003 1.11991629e-001
      2.51489967e-001 9.82382745e-002 2.75067165e-002 0. 0. 0. 0. 0.
      3.92953074e-003 2.51489967e-001 2.49525219e-001 0. 0. 0. 0.
      5.89429634e-003 5.50134331e-002 2.51489967e-001 1.27709761e-001 0.
      0. 0. 7.85906147e-003 9.82382745e-002 2.25948036e-001
      5.10839038e-002 1.96476537e-003 0. 2.75067165e-002 9.43087414e-002
      3.14362459e-002 1.41463116e-001 2.51489967e-001 3.14362459e-002
      1.76828895e-002 0. 0. 0. 0. 0. 0. 2.00406075e-001 1.49322182e-001
      0. 0. 0. 0. 0. 1.96476537e-003 2.51489967e-001 1.76828891e-001
      7.85906147e-003 1.96476537e-003 0. 0. 0. 2.35771853e-002
      1.08062103e-001 5.69781996e-002 3.92953083e-002 2.14159429e-001
      1.15921162e-001 5.89429634e-003 5.89429634e-003 2.55419519e-002</_>
    <_>
      2.16474198e-002 5.70704713e-002 1.57435779e-002 0. 0. 0. 0.
      3.93589446e-003 1.41692206e-001 2.14506254e-001 1.57435779e-002 0.
      0. 0. 0. 7.08461031e-002 2.51897246e-001 1.90890893e-001
      1.96794723e-003 0. 0. 5.90384193e-003 5.90384193e-003
      6.10063672e-002 1.20044790e-001 9.83973686e-003 0. 0.
      3.73909995e-002 2.51897246e-001 5.51025271e-002 3.73909995e-002
      8.65896791e-002 9.83973686e-003 0. 0. 0. 0. 0. 1.96794737e-002
      2.51897246e-001 5.90384193e-002 5.90384193e-003 0. 0. 0. 0.
      2.22378045e-001 2.51897246e-001 1.51531950e-001 7.28140548e-002
      1.96794723e-003 0. 0. 0. 1.55467838e-001 1.65307581e-001
      2.51897246e-001 1.29884526e-001 1.18076839e-002 2.75512636e-002
      7.08461031e-002 1.77115258e-002 1.96794737e-002 3.93589474e-002
      5.70704713e-002 3.93589446e-003 0. 0. 0. 0. 0. 1.33820415e-001
      2.51897246e-001 9.44614708e-002 0. 0. 0. 0. 7.87178893e-003
      2.36153677e-002 1.86954990e-001 2.51897246e-001 2.95192096e-002 0.
      0. 0. 3.93589446e-003 1.96794723e-003 2.51897246e-001
      2.51897246e-001 9.83973686e-003 0. 0. 0. 0. 0. 1.77115258e-002
      5.90384193e-003 0. 0. 0. 0. 0. 0. 6.69102073e-002 5.31345792e-002
      0. 0. 0. 0. 0. 0. 4.72307354e-002 1.51531950e-001 3.93589446e-003
      0. 0. 0. 0. 3.93589446e-003 1.45628110e-001 8.06858391e-002 0. 0.
      0. 0. 0.</_>
    <_>
      1.77204162e-002 0. 0. 0. 0. 5.90680540e-003 1.04353555e-001
      1.41763330e-001 1.06322490e-001 1.96893513e-003 0. 0.
      3.93787026e-003 5.51301800e-002 1.63421616e-001 7.08816648e-002
      2.52023697e-001 4.52855080e-002 7.87574053e-003 2.36272216e-002
      9.84467566e-003 3.93787026e-003 5.90680540e-003 4.33165729e-002
      4.72544432e-002 2.16582865e-002 1.18136108e-002 1.89017773e-001
      1.79173097e-001 2.55961549e-002 1.96893513e-003 1.96893513e-003
      1.87048838e-001 1.27980784e-001 4.72544432e-002 1.18136108e-002
      3.93787026e-003 1.18136108e-002 5.70991151e-002 1.37825459e-001
      8.07263404e-002 3.54408324e-002 7.48195350e-002 1.20105036e-001
      1.02384619e-001 1.04353555e-001 9.45088863e-002 3.93787026e-002
      2.52023697e-001 1.77204162e-002 3.93787026e-003 1.57514811e-002
      1.96893513e-002 2.16582865e-002 2.75650900e-002 1.06322490e-001
      4.52855080e-002 5.90680540e-003 1.96893513e-003 3.15029621e-002
      1.16167165e-001 2.52023697e-001 1.08291425e-001 3.74097675e-002
      3.34718972e-002 1.67359486e-001 1.22073971e-001 9.84467566e-003 0.
      0. 1.96893513e-003 1.96893513e-003 1.59483746e-001 8.07263404e-002
      1.92955643e-001 8.86020809e-002 5.90680540e-003 0. 0.
      1.96893513e-003 2.52023697e-001 1.47670135e-001 5.51301800e-002
      1.18136108e-002 0. 0. 3.93787026e-003 4.13476378e-002
      4.92233783e-002 5.31612448e-002 1.59483746e-001 1.87048838e-001
      1.24042906e-001 5.31612448e-002 2.55961549e-002 1.77204162e-002
      2.16582865e-002 1.18136108e-002 9.84467566e-003 0. 1.96893513e-003
      1.18136108e-002 4.33165729e-002 5.11923097e-002 1.51608005e-001
      2.16582865e-002 9.84467566e-003 1.96893513e-003 5.90680540e-003
      2.75650900e-002 3.34718972e-002 1.96893513e-002 2.52023697e-001
      8.07263404e-002 3.74097675e-002 4.52855080e-002 2.75650900e-002 0.
      0. 1.37825450e-002 1.96893513e-003 9.84467566e-003 1.26011848e-001
      2.36272201e-001 5.70991151e-002 0. 0. 0.</_>
    <_>
      1.76874641e-002 0. 0. 0. 0. 0. 0. 2.94791069e-002 8.05762261e-002
      0. 0. 0. 0. 0. 2.55485605e-002 1.59187183e-001 2.43693948e-001
      2.35832855e-002 0. 0. 0. 0. 2.75138337e-002 1.39534444e-001
      1.61152452e-001 3.53749283e-002 9.82636958e-003 9.23678726e-002
      2.27971762e-001 3.93054774e-003 1.96527387e-003 3.73402014e-002
      1.17916428e-001 5.89582138e-003 0. 0. 0. 0. 0. 5.30623943e-002
      2.43693948e-001 3.93054783e-002 5.89582138e-003 1.96527387e-003 0.
      5.89582138e-003 1.19881704e-001 2.43693948e-001 1.35603890e-001
      3.14443819e-002 1.96527392e-002 2.75138337e-002 2.16180123e-002
      5.89582138e-002 2.18145400e-001 1.74909368e-001 6.28887638e-002
      3.53749283e-002 2.16180123e-002 1.63117722e-001 2.39763409e-001
      1.96527387e-003 3.93054774e-003 9.82636958e-003 1.06124789e-001
      6.68193102e-002 0. 0. 0. 0. 0. 1.96527387e-003 2.43693948e-001
      2.43693948e-001 1.57221913e-001 9.82636958e-003 0. 1.96527387e-003
      7.86109548e-003 4.32360247e-002 1.96527392e-002 1.72944099e-001
      2.43693948e-001 9.43331420e-002 2.35832855e-002 2.16180123e-002
      1.57221910e-002 1.17916428e-002 0. 7.27151334e-002 6.28887638e-002
      5.69929406e-002 2.10284293e-001 2.16180123e-002 0. 0.
      1.57221910e-002 2.16180123e-002 0. 0. 0. 0. 0. 0. 7.86109548e-003
      1.31673351e-001 7.46804029e-002 0. 0. 0. 0. 0. 7.86109548e-003
      2.20110670e-001 1.43464983e-001 0. 0. 0. 0. 0. 1.57221910e-002
      1.96527377e-001 3.53749283e-002 7.86109548e-003 3.73402014e-002
      9.82636958e-003 0. 0.</_>
    <_>
      0. 0. 0. 0. 0. 0. 1.96616631e-003 2.55601630e-002 0. 0. 0. 0. 0.
      1.96616631e-003 8.25789869e-002 8.06128159e-002 0. 0. 0. 0. 0.
      4.12894934e-002 1.35665476e-001 1.17969979e-002 0. 0. 0. 0. 0.
      9.83083155e-003 6.68496564e-002 9.83083155e-003 7.27481544e-002 0.
      0. 0. 0. 0. 1.96616631e-003 1.12071477e-001 1.69090301e-001
      1.57293305e-002 1.96616631e-003 0. 3.93233262e-003 3.14586610e-002
      2.26109132e-001 2.47736961e-001 7.86466524e-003 1.96616631e-003
      1.96616631e-003 3.93233262e-003 5.70188239e-002 2.47736961e-001
      2.47736961e-001 6.29173219e-002 0. 0. 0. 0. 3.93233262e-003
      8.45451504e-002 2.47736961e-001 1.25834644e-001 1.90718129e-001
      1.96616631e-002 0. 0. 0. 0. 0. 3.53909954e-002 2.47736961e-001
      2.39872292e-001 2.55601630e-002 9.83083155e-003 7.86466524e-003
      9.83083155e-003 1.76954977e-002 1.00274481e-001 4.32556607e-002
      6.88158199e-002 5.30864894e-002 3.93233262e-002 1.12071477e-001
      1.43530145e-001 8.65113214e-002 6.09511547e-002 1.96616631e-002
      1.76954977e-002 8.45451504e-002 1.37631642e-002 5.89849893e-003
      3.53909954e-002 2.24142954e-001 2.47736961e-001 9.43759829e-002
      1.96616631e-003 0. 0. 0. 1.96616631e-003 1.96616631e-002
      9.43759829e-002 2.47736961e-001 4.52218242e-002 2.94924956e-002
      2.35939957e-002 0. 0. 0. 9.63421464e-002 4.12894934e-002
      3.14586610e-002 2.43804619e-001 1.23868480e-001 0. 0.
      3.93233262e-003 1.17969979e-002 7.86466524e-003 1.76954977e-002
      2.47736961e-001 1.00274481e-001 0. 0. 1.96616631e-003
      1.57293305e-002</_>
    <_>
      3.72601300e-002 9.80529748e-003 1.96105964e-003 2.51015633e-001
      1.33352041e-001 0. 0. 3.92211927e-003 2.92197883e-001
      8.23644996e-002 1.96105964e-003 7.84423854e-003 1.96105964e-003 0.
      0. 5.49096651e-002 2.27482900e-001 2.94158924e-002 4.90264893e-002
      4.70654294e-002 0. 0. 1.37274163e-002 4.90264893e-002 0. 0.
      7.84423854e-003 7.84423854e-003 0. 0. 0. 0. 8.04034397e-002
      2.54937746e-002 3.33380103e-002 8.43255594e-002 2.54937746e-002 0.
      0. 7.84423854e-003 2.92197883e-001 3.72601300e-002 5.88317867e-003
      1.76495351e-002 1.96105950e-002 0. 0. 1.29429936e-001
      1.41196281e-001 2.15716548e-002 7.84423798e-002 2.92197883e-001
      1.88261718e-001 0. 0. 2.54937746e-002 0. 0. 1.37274163e-002
      6.27539083e-002 1.76495351e-002 0. 0. 0. 1.21585689e-001
      2.94158924e-002 7.84423854e-003 7.84423854e-003 2.54937746e-002 0.
      0. 0. 2.92197883e-001 1.45118400e-001 1.56884771e-002
      4.51043695e-002 3.72601300e-002 1.96105964e-003 0. 1.76495351e-002
      4.70654294e-002 3.13769542e-002 1.56884771e-002 2.56898791e-001
      2.92197883e-001 1.17663573e-002 0. 3.92211927e-003 0. 0. 0.
      3.92211899e-002 6.27539083e-002 0. 0. 0. 9.41308588e-002
      1.96105964e-003 0. 0. 2.35327147e-002 7.84423854e-003 0.
      3.92211927e-003 2.92197883e-001 4.11822498e-002 1.96105964e-003
      7.84423854e-003 3.13769542e-002 1.56884771e-002 3.92211927e-003
      4.51043695e-002 3.52990702e-002 9.80529748e-003 1.96105964e-003
      2.74548326e-002 2.92197883e-001 9.21697989e-002 3.92211927e-003
      1.17663573e-002 0. 0. 0. 1.96105964e-003 7.84423798e-002
      1.56884771e-002 0. 0.</_>
    <_>
      5.88677935e-002 1.21660106e-001 1.03999771e-001 5.88677917e-003 0.
      0. 0. 9.81129892e-003 8.04526508e-002 2.66867340e-001
      1.41282707e-001 9.81129892e-003 0. 0. 0. 1.96225988e-003
      1.19697846e-001 1.74641117e-001 3.92451975e-003 1.96225988e-003
      9.41884667e-002 1.55018523e-001 1.56980790e-002 5.88677917e-003
      1.96225988e-003 0. 0. 0. 4.31697145e-002 2.62942821e-001
      1.13811068e-001 1.56980790e-002 2.35471167e-002 3.53206769e-002
      3.13961580e-002 0. 0. 0. 1.96225988e-003 2.74716374e-002
      2.23697618e-001 1.02037504e-001 2.94338968e-002 0. 0. 0.
      1.17735583e-002 5.88677935e-002 2.66867340e-001 1.15773328e-001 0.
      0. 5.88677917e-003 4.70942333e-002 1.76603384e-002 3.92451957e-002
      3.92451957e-002 0. 0. 1.76603384e-002 1.86414674e-001
      2.02112749e-001 4.12074551e-002 1.17735583e-002 7.65281320e-002
      3.33584175e-002 0. 0. 0. 0. 3.92451975e-003 3.92451957e-002
      1.53056264e-001 6.08300529e-002 0. 0. 0. 0. 3.13961580e-002
      1.51094005e-001 2.66867340e-001 6.67168349e-002 0. 0.
      1.17735583e-002 7.84903951e-003 3.92451975e-003 1.02037504e-001
      8.83016884e-002 1.17735583e-002 0. 1.96225978e-002 2.66867340e-001
      8.24149102e-002 3.92451975e-003 1.17735583e-002 4.51319739e-002
      5.10187522e-002 0. 0. 0. 0. 0. 1.96225988e-003 1.37358189e-001
      1.29509151e-001 0. 0. 0. 0. 0. 9.02639478e-002 2.66867340e-001
      9.61507261e-002 0. 0. 1.96225988e-003 0. 7.84903951e-003
      1.64829820e-001 9.22262073e-002 1.56980790e-002 0. 0.
      2.59018302e-001 9.81129855e-002 1.96225988e-003 2.15848573e-002</_>
    <_>
      0. 0. 0. 0. 0. 0. 1.37466202e-002 2.35656351e-002 0. 0. 0. 0. 0.
      9.81901493e-003 9.03349370e-002 4.51674685e-002 0. 0. 0. 0. 0.
      6.08778894e-002 5.69502860e-002 0. 0. 0. 0. 0. 0. 1.57104228e-002
      3.92760569e-003 0. 6.08778894e-002 0. 0. 0. 0. 0. 7.85521138e-003
      6.48055002e-002 1.39430001e-001 1.17828175e-002 0. 0.
      3.92760569e-003 4.90950719e-002 1.31574795e-001 1.92452684e-001
      5.89140877e-003 1.96380285e-003 0. 0. 8.24797228e-002
      2.69041002e-001 9.22987387e-002 1.57104228e-002 0. 0. 0. 0.
      1.57104228e-002 1.00153953e-001 5.89140877e-003 0. 6.87331036e-002
      5.89140877e-003 0. 0. 0. 5.89140877e-003 1.00153953e-001
      3.73122543e-002 2.69041002e-001 7.26607069e-002 0. 0.
      7.85521138e-003 1.57104228e-002 3.14208455e-002 1.29611000e-001
      4.71312702e-002 1.17828175e-002 0. 0. 7.46245086e-002
      2.69041002e-001 1.49249017e-001 6.87331036e-002 0. 0. 0. 0.
      1.76742263e-002 2.69041002e-001 5.89140877e-002 0. 1.96380285e-003
      0. 0. 0. 0. 4.71312702e-002 2.69041002e-001 2.74932403e-002
      5.30226789e-002 3.92760569e-003 0. 0. 0. 7.85521138e-003
      2.69041002e-001 2.69041002e-001 1.57104228e-002 1.96380285e-003 0.
      0. 0. 1.64959446e-001 2.69041002e-001 2.35656351e-001 0. 0. 0. 0.
      9.81901493e-003 2.69041002e-001 2.29764938e-001 0.</_>
    <_>
      7.45960400e-002 2.15935893e-002 0. 0. 0. 0. 0. 0. 2.55196959e-001
      1.76674828e-001 0. 0. 0. 0. 0. 3.92610719e-003 2.23788112e-001
      2.55196959e-001 2.49307811e-001 2.35566422e-002 0. 0. 0. 0.
      1.96305360e-003 2.15935901e-001 2.55196959e-001 2.55196970e-002
      3.72980200e-002 6.47807717e-002 1.96305360e-003 0. 9.42265689e-002
      1.37413749e-002 0. 0. 0. 0. 0. 5.88916056e-003 2.55196959e-001
      8.63743573e-002 7.85221439e-003 5.88916056e-003 1.96305360e-003 0.
      0. 9.42265689e-002 1.09931000e-001 8.44113007e-002 1.76674828e-001
      2.45381698e-001 8.83374140e-002 0. 0. 2.74827499e-002 0.
      2.55196959e-001 2.55196959e-001 1.07967950e-001 1.76674817e-002 0.
      0. 0. 5.88916093e-002 3.72980200e-002 0. 0. 0. 0. 0. 0.
      1.88453138e-001 2.49307811e-001 1.00115731e-001 1.76674817e-002 0.
      0. 0. 9.81526822e-003 1.76674817e-002 5.30024469e-002
      1.60970390e-001 2.55196959e-001 5.88916093e-002 0. 0.
      1.96305360e-003 0. 9.22635198e-002 4.31871787e-002 9.22635198e-002
      1.76674817e-002 0. 0. 0. 1.96305360e-003 1.76674817e-002 0. 0. 0.
      0. 0. 0. 1.96305360e-003 7.26329833e-002 5.49654998e-002 0. 0. 0.
      0. 0. 0. 1.76674817e-002 9.42265689e-002 3.53349634e-002 0. 0. 0.
      0. 3.92610719e-003 2.15935893e-002 1.37413749e-002 9.81526822e-003
      0. 0. 0. 0.</_>
    <_>
      5.89863583e-003 9.83105972e-003 0. 0. 0. 0. 0. 0. 5.30877225e-002
      1.57296956e-002 0. 0. 0. 0. 0. 4.91552986e-002 7.27498382e-002
      3.14593911e-002 0. 0. 0. 5.89863583e-003 7.07836300e-002
      2.18249530e-001 5.89863583e-003 3.93242389e-003 0. 0.
      4.12904508e-002 1.25837564e-001 8.84795338e-002 3.34256031e-002
      1.96621194e-002 1.96621194e-003 0. 0. 0. 0. 0. 0. 2.59539962e-001
      5.89863583e-003 0. 0. 0. 0. 0. 9.83105972e-002 2.59539962e-001
      3.93242389e-002 7.86484778e-003 9.83105972e-003 1.17972717e-002
      3.73580270e-002 1.45499676e-001 2.59539962e-001 1.76959075e-002
      5.89863583e-003 7.86484778e-003 6.29187822e-002 2.59539962e-001
      2.59539962e-001 1.63195595e-001 7.27498382e-002 1.76959075e-002
      3.93242389e-003 0. 0. 0. 0. 0. 0. 2.59539962e-001 1.06175445e-001
      0. 0. 0. 0. 0. 5.89863583e-003 2.59539962e-001 2.59539962e-001
      2.22181946e-001 6.48849905e-002 7.86484778e-003 3.93242389e-003
      3.93242389e-003 4.12904508e-002 1.37634836e-002 4.32566628e-002
      1.90722555e-001 2.59539962e-001 2.14317098e-001 2.16283314e-002
      3.93242389e-003 5.89863583e-003 3.93242389e-003 3.93242389e-003 0.
      0. 0. 0. 0. 0. 2.94931792e-002 7.86484778e-002 1.96621194e-003 0.
      0. 0. 0. 0. 3.53918150e-002 1.88756347e-001 1.45499676e-001
      7.86484778e-003 0. 0. 0. 3.93242389e-003 3.73580270e-002
      3.53918150e-002 9.63443816e-002 4.32566628e-002 1.96621194e-002
      7.86484778e-003 3.93242389e-003 2.16283314e-002</_>
    <_>
      5.89050017e-002 7.65765011e-002 1.37445005e-002 3.92700033e-003 0.
      0. 0. 2.94525009e-002 2.27766007e-001 2.27766007e-001 0. 0. 0.
      5.89050027e-003 3.92700033e-003 1.57080013e-002 7.26495013e-002
      6.87225014e-002 0. 0. 1.25664011e-001 2.04204008e-001
      7.85400067e-003 3.92700033e-003 0. 0. 0. 0. 1.72788009e-001
      2.27766007e-001 0. 0. 5.89050017e-002 7.06860051e-002
      1.17810005e-002 0. 0. 0. 0. 3.92700024e-002 1.86532512e-001
      2.27766007e-001 2.35620011e-002 0. 0. 0. 0. 2.94525009e-002
      2.10094512e-001 2.27766007e-001 0. 0. 2.94525009e-002
      8.44305009e-002 1.96350017e-003 2.94525009e-002 1.37445005e-002
      3.92700033e-003 0. 0. 1.02102004e-001 2.27766007e-001
      4.71240021e-002 3.92700033e-003 2.35620011e-002 7.65765011e-002
      1.37445005e-002 0. 0. 0. 0. 0. 2.27766007e-001 1.13883004e-001
      1.57080013e-002 0. 0. 0. 0. 8.63940045e-002 2.27766007e-001
      8.24670047e-002 5.10510020e-002 1.76715013e-002 0. 3.92700033e-003
      1.96350017e-003 2.12058008e-001 3.53430025e-002 6.87225014e-002
      6.08685017e-002 2.15985011e-002 5.89050027e-003 8.63940045e-002
      8.83575007e-002 3.73065025e-002 1.57080013e-002 2.15985011e-002 0.
      0. 0. 0. 0. 0. 1.41372010e-001 1.96350008e-001 1.76715013e-002 0.
      0. 0. 0. 5.89050027e-003 6.67590052e-002 1.90459505e-001
      2.27766007e-001 4.31970023e-002 0. 0. 0. 9.81750060e-003
      1.37445005e-002 2.17948511e-001 2.27766007e-001 4.51605022e-002 0.
      0. 0. 1.96350017e-003</_>
    <_>
      5.88694913e-003 2.35477965e-002 1.96231646e-003 0. 0. 0. 0. 0.
      1.74646169e-001 1.29512891e-001 0. 0. 0. 0. 0. 5.88694913e-003
      2.64912724e-001 2.64912724e-001 0. 0. 0. 0. 0. 9.81158204e-003
      1.17738985e-001 1.92307010e-001 1.96231641e-002 1.17738983e-002
      1.82495430e-001 1.05965085e-001 0. 0. 1.56985316e-002
      7.84926582e-003 0. 0. 0. 0. 0. 0. 2.64912724e-001 2.55101137e-002
      0. 0. 0. 0. 0. 1.56985316e-002 2.64912724e-001 2.45289549e-001
      4.31709625e-002 3.92463291e-003 0. 0. 0. 2.55101137e-002
      7.06433952e-002 2.64912724e-001 2.64912724e-001 1.76608488e-002
      2.74724308e-002 1.56985316e-002 0. 0. 1.96231641e-002
      5.88694913e-003 0. 0. 0. 0. 0. 0. 2.53138810e-001 2.74724308e-002
      0. 0. 0. 0. 0. 6.86810762e-002 2.53138810e-001 8.43796059e-002
      6.27941266e-002 1.02040455e-001 2.55101137e-002 0. 0.
      9.22288746e-002 3.92463291e-003 1.64834574e-001 2.64912724e-001
      1.51098371e-001 2.35477965e-002 0. 0. 0. 9.81158204e-003
      5.88694913e-003 0. 0. 0. 0. 0. 0. 9.41911861e-002 1.07927404e-001
      1.56985316e-002 0. 0. 0. 0. 1.96231646e-003 4.12086435e-002
      9.81158242e-002 1.43249094e-001 1.07927404e-001 9.81158204e-003 0.
      0. 3.92463291e-003 0. 3.13970633e-002 3.53216976e-002
      1.11852035e-001 1.17738983e-002 0. 0. 0.</_>
    <_>
      1.37788067e-002 9.84200463e-002 4.92100231e-002 3.93680204e-003 0.
      0. 0. 1.96840102e-003 3.93680204e-003 1.37788067e-002
      7.28308335e-002 6.10204302e-002 5.90520306e-003 0. 2.75576133e-002
      3.73996198e-002 0. 0. 5.90520306e-003 2.16524098e-002
      1.96840102e-003 0. 1.39756471e-001 6.69256300e-002 4.13364209e-002
      1.96840102e-003 0. 0. 0. 0. 1.14167258e-001 1.73219278e-001
      7.67676383e-002 1.57472081e-002 1.96840102e-003 0. 0. 0. 0.
      3.73996198e-002 1.47630066e-001 1.57472081e-002 1.96840102e-003 0.
      0. 0. 6.88940361e-002 2.65734136e-001 7.87360370e-002
      1.37788067e-002 0. 0. 0. 0. 2.65734136e-001 2.65734136e-001
      1.37788067e-002 0. 0. 0. 0. 2.36208122e-002 2.65734136e-001
      2.65734136e-001 1.29914463e-001 9.84200463e-003 0. 0. 0. 0. 0.
      2.36208122e-002 2.65734136e-001 1.69282481e-001 0. 0. 0. 0.
      1.96840102e-003 1.02356851e-001 2.65734136e-001 2.12587312e-001 0.
      0. 0. 0. 2.75576133e-002 1.75187692e-001 1.31882861e-001
      6.69256300e-002 0. 0. 1.96840102e-003 4.33048196e-002
      1.06293656e-001 6.69256300e-002 7.08624348e-002 0. 0. 0. 0. 0. 0.
      1.22040860e-001 1.12198852e-001 1.57472081e-002 0. 0. 0. 0.
      1.96840093e-002 2.65734136e-001 1.45661667e-001 2.55892128e-002 0.
      0. 0. 0. 2.16524098e-002 2.65734136e-001 3.54312174e-002
      1.96840093e-002 0. 0. 0. 0. 0. 3.93680204e-003</_>
    <_>
      3.92996334e-003 0. 0. 1.37548717e-002 6.28794134e-002
      3.14397067e-002 1.57198533e-002 7.85992667e-003 1.29688784e-001 0.
      0. 1.96498167e-003 5.89494500e-003 0. 0. 2.08288059e-001
      2.45622709e-001 7.85992667e-003 0. 0. 0. 0. 9.82490834e-003
      2.45622709e-001 4.32295948e-002 3.92996334e-003 1.96498167e-003 0.
      0. 3.92996334e-003 9.43191200e-002 1.37548715e-001 4.71595600e-002
      9.82490834e-003 1.96498167e-002 7.07393363e-002 4.32295948e-002
      1.96498167e-003 0. 1.57198533e-002 2.45622709e-001 6.09144308e-002
      9.82490834e-003 0. 1.96498167e-003 0. 0. 2.10253045e-001
      2.45622709e-001 2.45622709e-001 1.21828862e-001 0. 0. 0.
      1.96498167e-003 1.78813338e-001 2.94747241e-002 1.63093477e-001
      1.02179043e-001 0. 0. 0. 1.37548717e-002 2.55447607e-002
      4.12646160e-002 6.09144308e-002 2.75097433e-002 7.85992667e-003 0.
      0. 0. 0. 1.45408645e-001 2.45622709e-001 7.85992667e-002 0. 0. 0.
      0. 5.89494500e-003 1.80778310e-001 2.45622709e-001 2.22042933e-001
      0. 0. 0. 0. 3.92996334e-003 1.96498170e-001 1.53268576e-001
      3.14397067e-002 0. 0. 0. 0. 7.85992667e-003 5.89494500e-003
      2.55447607e-002 0. 0. 0. 0. 0. 0. 1.96498167e-002 1.27723813e-001
      1.76848341e-002 0. 0. 0. 0. 0. 2.45622709e-001 1.39513701e-001
      1.76848341e-002 0. 0. 0. 0. 3.92996334e-003 2.45622709e-001
      4.12646160e-002 0. 0. 0. 0. 0. 9.82490834e-003</_>
    <_>
      1.57203395e-002 0. 0. 0. 0. 0. 0. 1.17902542e-002 5.50211854e-002
      3.93008487e-003 0. 0. 0. 0. 9.82521195e-003 7.66366497e-002
      2.90826261e-001 4.71610166e-002 0. 0. 0. 0. 5.89512708e-003
      5.30561432e-002 2.90826261e-001 4.71610166e-002 0. 1.96504244e-003
      5.89512708e-003 3.34057212e-002 9.82521195e-003 1.96504239e-002
      6.68114424e-002 1.96504244e-003 0. 0. 0. 0. 0. 3.14406790e-002
      1.10042371e-001 1.96504239e-002 1.96504244e-003 0. 0. 0.
      3.34057212e-002 2.04364404e-001 2.90826261e-001 5.89512698e-002
      5.89512708e-003 0. 0. 0. 3.34057212e-002 1.53273299e-001
      2.90826261e-001 1.76853806e-001 1.76853817e-002 2.55455505e-002
      5.89512708e-003 0. 0. 5.89512708e-003 6.28813580e-002
      3.73358056e-002 0. 0. 0. 0. 0. 1.96504244e-003 1.02182202e-001
      1.96504235e-001 4.32309322e-002 0. 0. 0. 0. 1.57203395e-002
      2.47595340e-001 2.20084742e-001 6.87764809e-002 0. 0. 0. 0.
      1.76853817e-002 2.90826261e-001 1.35587916e-001 3.93008487e-003
      7.86016975e-003 1.17902542e-002 9.82521195e-003 3.93008487e-003
      5.69862276e-002 1.17902542e-002 1.76853817e-002 0. 0. 0. 0. 0. 0.
      2.55455505e-002 9.23569947e-002 1.17902542e-002 0. 0. 0. 0. 0.
      2.90826261e-001 7.07415268e-002 9.82521195e-003 0. 0. 0. 0.
      6.09163120e-002 2.90826261e-001 9.82521195e-003 0. 0.
      3.93008487e-003 1.96504239e-002 1.96504239e-002 2.35805079e-001</_>
    <_>
      1.57259274e-002 1.31704628e-001 5.30750006e-002 0. 0. 0. 0. 0.
      2.41786122e-001 1.74950927e-001 1.96574088e-002 0. 0. 0.
      5.89722255e-003 1.57259274e-002 2.18197227e-001 7.86296353e-002
      5.89722255e-003 0. 0. 0. 1.04184262e-001 1.39567599e-001
      2.75203716e-002 5.30750006e-002 9.82870441e-003 0. 0.
      3.34175937e-002 2.28025928e-001 8.84583369e-002 9.63212997e-002
      4.32462990e-002 0. 0. 0. 0. 0. 3.93148186e-003 2.41786122e-001
      4.91435193e-002 3.93148186e-003 1.96574093e-003 0. 0. 0.
      4.71777804e-002 1.74950927e-001 2.18197227e-001 2.12300003e-001
      4.91435193e-002 1.96574093e-003 0. 0. 7.86296371e-003
      1.17944451e-002 2.41786122e-001 2.41786122e-001 5.89722255e-003 0.
      1.96574093e-003 1.96574093e-003 3.93148186e-003 1.47430554e-001
      1.17944451e-002 0. 0. 0. 0. 0. 9.82870441e-003 2.41786122e-001
      1.37601858e-002 1.96574093e-003 5.89722255e-003 9.82870441e-003
      9.82870441e-003 5.89722255e-003 7.46981502e-002 3.53833362e-002
      2.16231495e-002 9.04240757e-002 1.15978710e-001 1.61190748e-001
      6.48694485e-002 7.86296371e-003 1.37601858e-002 0. 1.84779629e-001
      2.41786122e-001 3.73490751e-002 3.73490751e-002 5.89722255e-003 0.
      0. 1.39567599e-001 9.82870441e-003 0. 0. 0. 0. 0. 1.96574088e-002
      2.41786122e-001 6.09379634e-002 1.37601858e-002 3.93148186e-003
      7.86296371e-003 1.57259274e-002 9.82870441e-003 1.06150001e-001
      1.76916681e-002 9.82870441e-003 1.76916681e-002 4.91435193e-002
      2.41786122e-001 1.27773151e-001 1.17944451e-002 1.96574088e-002
      1.76916681e-002 9.82870441e-003 1.37601858e-002 1.57259274e-002
      1.17944449e-001 2.75203716e-002 0. 1.57259274e-002</_>
    <_>
      1.96457207e-002 0. 0. 0. 0. 0. 7.85828847e-003 9.62640345e-002
      5.69725893e-002 1.37520051e-002 0. 0. 0. 0. 1.17874322e-002
      1.21803470e-001 9.23348889e-002 2.94685811e-002 3.92914424e-003 0.
      0. 0. 3.92914424e-003 2.63252646e-001 1.47342905e-001
      5.69725893e-002 9.82286036e-003 2.35748645e-002 3.92914424e-003 0.
